374 300
the 0.0016104055 0.00061623158 0.001753776 0.0013344681 -0.00093491864 -0.00085563149 0.001567189 6.165661e-05 0.00024612778 0.00069506484 -0.00053786306 -0.00029461697 -0.0015202531 -0.00150593 0.00085840171 -0.00056740147 -0.00070891349 -0.0014197011 0.0015999678 -0.0011143192 0.00060562906 -7.0316957e-05 -0.00011960471 0.00047868083 -0.00068733323 -0.00070652296 -0.0015008354 0.0013121823 -0.0013488729 -0.0015247531 0.00049629289 0.0012005781 -8.8147346e-05 -0.00019705603 4.7325161e-06 0.00063506799 0.00077142817 -0.000611878 -0.00094886852 0.0010769184 -0.0010499537 0.00037741725 -0.00064548349 -0.00029879063 0.00047537079 -0.00091252115 -0.00098813232 0.00034719077 -0.0013301893 0.0002473701 0.00063082512 -0.0013049643 -0.0012394006 0.0016157404 -0.00078800216 0.00047749392 -0.00029412584 -0.00040416158 0.00049191155 0.00091323024 -0.00067346543 0.0014476582 -0.00081704633 0.001120302 -0.0012948038 -5.1266856e-05 -0.0011511422 6.017775e-05 -0.00047560735 0.0014417494 -0.0013059848 0.00058542052 0.0015695767 0.00045147291 -0.0011041368 0.00052129722 0.0004804632 -0.0015422259 -0.0010389948 0.0010997861 0.001177203 -0.0010499096 -0.00011260273 0.0010134391 -0.00061721727 0.00038751084 -0.00060798338 0.00038521143 0.00036182135 -0.0010592013 0.0012284452 0.00019041222 -4.217332e-05 -0.00072381133 0.00091170578 -0.00071882363 -0.00024331092 -0.00052583433 0.0016681718 0.00073060032 0.00076227769 0.0016415571 0.0013251532 8.1508379e-06 -0.00061158685 0.0010455379 0.000295654 -0.00029467352 0.00031670084 -0.00067397405 -0.00010769356 0.00088416907 -0.00059365825 0.00010088828 0.00043353176 0.00055143319 0.0014275267 0.00093482272 0.00085776043 -0.0015544858 0.00081257813 -0.00094003719 -0.0012223055 0.0013639362 0.00084006955 -1.7779097e-05 0.00098070293 -0.0013956806 -0.0011474409 -0.0014420463 -0.00052263262 0.0012177983 0.0012562999 -0.0011036055 -0.0002824931 -0.00015923314 0.0016331306 0.0011607545 0.0012515142 -0.0016697334 5.7871472e-05 -0.00024644908 -0.001483469 0.00065736182 0.0016088777 -5.9741429e-05 0.00044848234 -0.00012034965 -0.00069871201 -0.0016744836 -0.00060464191 -0.00022287969 -0.00024230855 -0.0016265033 0.00076549774 -0.00042012209 -0.00093924947 0.00031049861 -0.00080214808 -0.00023154331 -0.0013146305 -0.00081123243 0.0015760531 -0.0013290111 0.0013923399 0.00021616883 -0.00036292351 0.00093291397 -0.00046606504 0.0014574454 0.00039358664 0.0012559948 -0.00025982043 -0.00045432593 -0.0012584424 0.00065845263 0.0015064796 0.0010963669 0.00014931764 -0.001386566 1.6272485e-05 0.00049586938 0.00037076301 0.00074864627 -0.0010728702 0.0011636105 0.001600611 -0.00054348074 0.0012032356 -0.0014784549 -0.0010082108 0.0004120729 0.0016645143 2.8082841e-05 0.0013490496 0.00087474979 0.00066163921 -0.0013160773 0.00028915756 -0.00012908106 -0.00037270738 0.00032990746 0.00031849399 0.00053902587 -0.001247954 0.0014948462 -0.00015793195 0.00093810936 0.0015207733 -0.0016372983 -3.9136394e-05 0.0012558921 0.0011029756 -0.00016567938 0.00024492849 9.5587384e-05 -0.0012602714 -0.00010221524 -0.0014451001 0.0011151402 0.0013435064 0.00045129788 -0.00095755019 9.8966111e-06 0.0012305275 0.0016023914 -0.00034261117 0.0003216911 0.0010762787 -0.00037896432 -0.0005730089 -0.00070801907 -0.0013522423 -0.00083713303 -4.1092473e-05 0.0014003462 0.00064589462 -0.0010972822 -0.00023156249 -0.00050372037 -0.00041198614 0.001524963 -0.00019736261 0.00055110181 0.0014389796 -0.0013666991 0.00068610226 -0.0016024911 -0.00065217866 0.00050911226 -0.00020647957 -0.0013669853 0.0015150431 0.00085588964 -0.0011718317 -0.0013794495 0.0008198304 -0.0014697451 0.0014585382 -0.00069113774 0.0013869326 -0.00029598488 0.0013652252 -0.00011445655 -0.00017507104 0.00052548427 -0.00055619061 -0.0015728594 0.001136967 -0.0012399298 0.0008123446 0.0015334786 0.0017205862 8.9429832e-06 8.4768573e-05 0.00080817624 -0.00063956168 0.00011613072 -0.0014434485 -0.00060823921 -0.00027355796 0.0013960055 -0.00158922 0.0012101781 -0.00020382232 0.0013990316 1.3511733e-05 -0.00044917015 -0.0015590388 0.00088776555 0.0011690358 0.00024851761 -0.00094294926 0.00082641741 -0.00026432201 0.00032972853 -0.0013545764 -0.001374157 0.0015776354 0.0013273362
in 0.00066835963 -0.00096586527 0.0005172721 -0.0012984453 0.0013282348 0.00021386909 0.001026506 0.0011694457 0.0016595637 -0.0015390619 0.0015407375 -0.00011511154 -0.00068463362 -0.0011546306 0.001161912 0.0015047262 -0.0012764822 0.00050315296 6.6177927e-05 -0.0011567367 -0.0016644306 -0.00045225382 -0.00038743555 0.00082727644 0.0010016651 -0.0012480232 -0.001527336 -0.0010232673 0.001560566 0.00084143522 0.0012109546 0.00012938006 0.00029274277 4.6727553e-05 0.00019224768 -0.0016646519 -0.00030798907 -0.00136271 -1.9450257e-05 -0.00091425888 0.00072383817 0.001714189 0.00042032404 0.0016640828 0.0010559733 -6.6212466e-05 -0.0010994518 -0.0015965491 0.00090380904 0.0011322292 -0.0015060118 0.0001789753 -0.0013492919 -0.0012867431 -0.00062512059 0.001721799 0.0002950269 0.0013088329 -0.0013835446 -0.00048108806 -0.0015909059 -0.0011112395 -0.00077884726 0.00014221028 0.0014873298 -0.0010706797 6.4432461e-05 -0.00031531011 0.00032695726 -0.00072766683 -0.0004836779 0.00074952951 -0.001597321 -0.0010444908 0.00049285556 0.0011873813 0.0010436351 0.0011837671 0.0011621153 -0.0014321017 0.00042661381 0.00028546568 0.0010599789 0.00023530501 -1.4521878e-05 6.1485516e-05 -0.00026937044 0.0014794577 0.0016917969 -0.00062553142 0.000462002 0.0014021476 0.00051959144 0.0017607403 -0.00090247823 0.0014381104 -0.00027237157 -0.0010023196 0.00064131676 0.00062317576 -0.0012943413 0.0012468627 4.5633369e-05 0.0012215651 -0.0011951159 0.00095732877 -0.00066500762 -0.00029560245 0.00023321316 -0.00043568766 0.0007300154 0.00058913563 -0.0003941918 -0.0014720514 0.0011473936 0.00041416904 -0.00047513269 -0.0002626768 -0.0016952523 0.0010947092 0.0010766226 0.00026298623 -0.0010615782 0.0017205564 0.00071752974 0.00095908053 0.0011488025 0.00025917351 0.0006158317 0.0016423266 -0.001217799 3.2558444e-05 -0.00091931783 0.0014879954 0.0016043645 -0.00012478685 0.00052086997 -0.0015434397 -0.0016336595 -0.00042101671 9.7893117e-06 -0.0013049915 -0.0011684797 -0.00031483287 -0.0016787676 0.0014952691 0.00046498814 -0.0012544934 7.5255615e-05 0.001230888 -0.0012162685 0.00051618723 0.0013477665 8.3433973e-05 -0.00030386986 -0.0014042497 1.8237466e-05 0.0013608234 0.0013896856 -0.0015866902 0.00068830512 -0.0013576228 -0.00102977 -0.00052620121 -0.00021137422 -0.0011416486 0.00036496748 -2.4587171e-05 -0.00074717338 -0.00018482652 0.0010872317 -0.00031464241 -0.0011542502 -0.0015603132 0.0007778873 0.0010069673 0.00069344585 0.0012816805 0.00066173851 0.0012238958 0.00010611082 0.00095399597 5.015836e-05 0.00014148862 -0.00042409651 -0.00048920995 0.00027279346 0.0016750457 -0.0016271754 -8.6434964e-05 0.00021318965 -0.00067933515 0.0007978747 -0.00021225488 -0.00095092726 0.00089496496 -0.00061828247 0.00027698712 0.0005597726 0.0012620852 0.00049762934 0.0012201823 -0.00021829779 -0.00024278522 -0.00048851926 1.2508355e-05 0.00088305201 -0.0002749406 0.0012112973 -0.0002735249 0.000547364 -0.00026831008 0.0007719092 0.00084326154 0.0002285251 -0.00111449 0.0014633288 -0.00033397175 0.0010236772 0.00073301088 -0.00037394743 0.001904371 -0.00043094478 -0.0016922866 0.0008147374 0.0015354794 0.00028045042 -2.5709802e-05 0.0010693095 0.00023911838 0.0015438515 -0.00032504462 0.0011986819 0.00019215676 0.00051482348 0.00049575174 0.00090565119 0.0011248385 0.00083201088 -0.00028956303 -0.0014355117 -0.00013867799 -0.00030068788 0.00021217762 -0.00080476783 0.00022042719 0.0011555847 -0.0012915309 -0.0010855505 -0.00086079346 0.00017760608 0.0015310873 0.00011353173 0.00046568038 -6.7879468e-05 -0.00084704784 -0.0014139062 -0.00065562554 -0.0003162183 0.0017923556 -0.00087013631 0.000996285 0.0008702043 0.00087132328 0.0013345073 -0.00069122971 -4.9518148e-05 0.0010488397 0.00096977322 0.00013017528 0.00078414573 0.00034142466 0.0004617837 0.001115562 0.000695611 -0.0014149391 -0.00036438878 -0.00011348949 -0.0015861291 0.00097764691 0.00078253786 0.0011727976 -0.0011693661 0.001278081 -0.00032183892 -0.0016654973 0.00055947813 -0.0012109162 -0.0013023185 -0.00028783717 -0.00018062633 -0.00043121941 -0.0002461891 -0.00081973296 -0.0010254888 -0.00055959279 -0.00044505845 -0.00025838864 0.00025802199 -0.00023515805
a -0.0015535764 -0.00097902853 0.00020987193 -0.00088141469 -0.0017862199 -8.2182465e-05 0.00017651821 0.00051090034 0.001796908 -0.0010651102 -0.0011616376 -0.00094073341 -0.00083424977 -0.0015275166 0.00087654707 0.0014450039 0.0011690687 0.0012986119 0.000117749 0.00086238672 -0.00074028381 0.00036702509 3.5628309e-05 -0.0010163466 0.0017341038 -0.00055386906 0.001149762 0.00045544186 0.0012728778 8.3038933e-05 0.00053603092 -0.00068101782 -4.3982386e-06 -0.0014436258 0.00047786775 -0.0008029358 -0.0017225958 0.00056542514 0.001084297 -0.0014715848 0.00044459055 -0.0012144098 -0.00086006819 -0.00061768072 0.00055900059 -0.00059795129 0.0016453207 -0.0011765803 -0.0013404726 -0.0009934844 -0.0010795428 -0.00087570364 0.00067450403 0.00039254536 -0.000787361 0.0015265945 0.0004838868 0.00068157481 -0.00087687658 0.0003242041 -0.0015823403 -0.00098548445 -0.0012024867 0.0017045852 0.00078895042 0.0011950749 0.00083875627 -0.0003870661 0.00040469193 -0.0015499 0.00090116885 0.0014792011 0.001177864 0.0011640876 0.00023433671 -0.00021728818 -0.001019994 -0.001283595 -0.00025247326 0.00097068667 0.00021619457 0.0015435902 0.00056300184 -0.0015112174 -0.0010792809 -0.001010692 0.0015362363 -0.0013946476 -0.00049952092 0.00022569518 0.0012718333 -4.5186218e-05 -3.7258844e-05 -0.0002890717 -0.0016728721 -0.00099703809 -0.00040267452 0.00016442247 0.00014453816 0.00039939236 -0.00089977693 -0.00075061677 0.00036854384 -0.0015973233 -0.00080816197 0.0016956967 -0.0015607029 -0.0011890165 0.0012228433 0.0008958152 -0.00092387019 -1.0578878e-05 -0.00073640468 -0.0010936054 0.0014650347 -0.00091449759 0.00058504049 0.00054705481 0.00059447152 -0.00044336647 -0.00010480789 0.0016028062 -0.00082677731 0.001468422 0.0014028718 -0.00042112762 -0.00053047616 -0.00080206728 -0.0011399888 0.0001543745 0.00034302493 0.00056635879 -0.0013582237 -0.00022106708 -0.00074897893 -0.0017397624 0.0012510264 0.00094340928 0.00017305769 0.00046443878 -0.0003668438 0.00098776619 -0.0010285467 0.0013665929 -0.0013101702 0.00099284376 -0.0015466289 -0.0012910911 0.0012485797 -0.001575919 0.00053479907 0.0016032911 0.00059980253 -0.0012557043 -4.5098372e-05 -0.00118418 0.001594992 0.00064852915 -0.0014097239 0.0008465295 0.00087772601 0.0009027865 -0.0016073727 -0.00041395781 0.00081458059 -0.0010578606 -0.00023227959 -0.00011280397 0.0015523382 0.001163691 0.0014381653 -0.00011859947 -0.00015468114 -0.0016800652 0.0016632716 0.00073687622 -0.00051480276 -0.0012127236 5.3389478e-05 0.00064790231 0.0012802145 -1.7719914e-05 9.4133138e-06 0.00045101612 0.0012171128 0.00046555744 0.00088316604 0.0012952117 0.00097352033 -0.00035195681 0.00036034611 0.00075135299 0.0015223318 0.0015757155 -0.00039223154 0.0011189888 -0.00087476755 0.00053559331 -0.0016661965 -0.00073995651 -0.00065686693 0.0009050275 -0.00082669768 -0.0011566938 -0.0016580041 -0.00088705105 0.00091636163 -0.0014600939 0.00078981812 0.00025145497 0.001422283 -0.00080412347 0.00084684487 -9.6722062e-05 -0.00016718633 -0.0016220268 0.00088056148 0.00049877085 0.0013621122 -0.0014742593 0.00080785301 0.00080323004 0.00028487926 8.0796679e-05 0.00073567528 -0.00067730586 0.00094841869 0.0012537217 0.0009922852 -0.00025943364 -0.0016320756 0.00057575648 -0.00092693313 -0.0015704811 0.0011782622 0.0011412285 -0.00041402585 0.0016680525 0.0010118054 -0.0014525459 0.0015184178 -0.00013911203 -9.3108094e-05 0.00087088591 0.0013649423 -0.0016318852 0.00044848898 -0.00054156204 -0.0013794824 -0.00067669456 -0.0012026086 -0.00051369751 0.0015628675 0.00050622941 0.0015216169 0.0012265925 0.0014663959 0.00086962478 -0.00022566377 -0.00030756311 0.0016721312 -0.00028703621 -0.001601657 0.00051376631 0.0002874909 -0.00062649796 0.0005121149 0.0004779874 -0.00039199082 2.0860261e-05 0.00091215206 0.00096860464 0.0011032037 -0.0010101044 0.0012129614 -0.00061979808 -0.00063924387 0.00026181803 -0.00022698958 -0.0010127729 0.00041099291 0.00067454315 -0.0010829101 -0.00039171238 0.00087552186 -0.0013530682 0.00068492431 0.00022496271 -0.0013848491 0.0013944915 -2.5214234e-05 -0.001196221 0.0010872401 -0.00099008682 -0.00066450308 -0.00078949 0.00088000362 -0.00087045069 0.0016891428 -0.00033291749
to 0.00034757442 -0.00084703794 -0.00084929162 -0.0012511987 -4.1824253e-05 -0.0016539986 -0.00014785501 0.0012550132 0.00063394808 -1.0023988e-05 -6.3476618e-05 -0.0012306374 0.0013770997 -0.0016384441 -0.0014315553 0.001338297 0.0015800764 0.00035572576 -0.0011934941 -0.00033639354 -0.0005206521 -0.001268893 -0.0011693812 -0.00057755032 0.0016736409 -0.00077418616 -0.0018065124 0.0015557138 0.00050808582 -0.0009152721 0.0013105943 0.0017115483 -0.00095659005 -0.0010471933 0.00049210084 -0.0011341017 -0.00067373575 0.0013268256 -0.0010358942 0.0012010981 0.0014312529 0.00022805018 0.0001025833 -0.0015164936 0.0002245206 0.0016324219 0.0013001978 -0.0003057186 0.00052591751 0.0012959057 -0.0010407987 -0.0010720072 0.00020148893 0.00039730262 -0.001456495 0.0016304904 0.00021271866 -0.0004089821 0.00050729548 0.0012417242 -0.0010579482 -0.00086194312 0.0012146406 0.00010267772 -0.00091219658 4.7955815e-05 0.00025609901 0.00056965533 3.1759129e-05 -0.0014004786 0.00016262403 -0.0013856482 0.0013320855 4.2108019e-05 0.0010381527 0.0015790089 -0.00010495533 -0.0015929797 -7.3720308e-05 -0.00028364002 0.00037393378 0.0013218768 0.00064149313 -0.00071358785 0.001457328 0.0014528481 7.561309e-05 -0.00044935889 -0.00068003137 0.00045082328 -0.0012217608 0.001556949 -0.00075051229 -9.7094533e-05 -4.3339747e-05 0.00041229255 0.00099308032 -0.0015632152 -0.000984265 -0.0013423607 0.00081027765 -0.00057956378 0.00055546936 -0.0010211667 0.0011777793 0.0013236598 0.00049275928 -0.0010390261 -0.00018211149 -0.00020984447 -0.00088804547 -0.0011164556 -0.00072897936 0.00080502557 0.00010856906 4.2483043e-05 -0.00088065269 0.0014418548 -0.0013208853 -0.0011226338 -0.00022917513 -8.2355524e-05 -0.00060854875 0.0012418216 -0.00055664661 0.00074548385 0.00029448949 0.00035105733 0.00045376079 0.001341535 -0.0011047228 0.00045961863 -0.00079832406 -0.0014063766 -0.00047878231 -0.00096961512 0.0016127941 -0.0013179579 0.0013798268 -0.00095627282 0.00018636284 0.00034466371 -0.0012765772 0.00056475028 -0.00090139441 0.00073946943 0.00037969617 0.00022967256 -0.00088699866 -0.00084572122 0.00093158719 -0.0012303115 -0.00031115979 -0.00012946251 -0.0011398757 7.9800433e-05 -0.00084222434 0.00021227407 0.0009360261 -0.0015577292 -0.0002944124 0.00076848746 0.00037503504 0.00090831664 0.00091636082 -7.2452647e-05 -0.0016655908 0.0013111621 0.0014481957 0.0006208854 -0.001543228 0.0016557408 -0.00072278694 0.00027683497 -0.0010090625 -3.9886119e-05 0.00064023311 -0.0013732307 0.00075122237 0.0012334087 0.0002558908 0.0011760776 -0.00093983661 -0.0016818017 0.0014974046 0.0014003569 0.0011590822 0.00043015316 -0.0013741645 -0.0011541088 0.0013139328 -0.0016298651 0.0012077517 -0.00022964185 0.00053585652 -0.00066016603 -0.00044673844 -0.00058011163 -0.0014102926 0.00025585981 0.00065997551 0.0016771259 0.0011154315 0.0011363103 -0.0015313252 0.0012943126 0.00075807015 0.00085003598 0.0015431469 0.00028773269 0.00016164596 -0.00069521088 0.00054158742 -0.00090414216 0.00089824962 0.00020650307 -0.0012244765 -0.00081406301 -0.0011081049 0.0014835694 0.00016911689 -0.0011451457 0.00048227023 0.00023941313 0.001389539 0.0010645494 0.00075161096 -0.0016387128 0.0011768134 -0.00091520307 -0.00073053519 -0.00099916838 -0.0013768674 -4.0751154e-05 0.00078770559 0.00183456 0.0012416054 -0.00075844844 -0.001309377 0.00021749703 -0.001351739 -0.0010168655 0.00093072036 0.0017098702 0.00059420697 -0.00036022448 -0.0016241184 -0.0017317857 0.0015333809 -0.00030326698 -0.0015609227 -0.00037924096 -0.001468205 -0.00045022563 -0.00014894904 0.00018028441 9.4679315e-05 -0.00027383625 -0.00074589218 -1.2102698e-05 -0.0014128292 0.00096343365 -0.00090784283 0.0012894241 0.0011693119 0.0017439827 -0.00012900341 0.0010360585 -0.000372776 0.0011251955 -0.0015612487 -0.00064011407 -0.0015463732 -0.0013711281 -0.00061228598 0.00049971847 -0.0011880716 0.00032854668 0.00017260047 0.00078499125 0.0013647286 -0.0013534314 0.0014706362 -0.00074437563 -0.00067772804 -0.00084216025 0.00074017374 0.0012015987 -4.9606675e-05 0.00010402371 -0.00159745 0.0011787082 0.00036809125 0.00030992256 0.00022775908 -0.00047090187 4.8311126e-06 0.00085103483 -0.00024745325 -0.00059251831
of 0.00072172226 -9.2181566e-05 -0.0002255225 -0.00040855407 -0.0016105528 -3.4159337e-05 0.0013030311 0.00088016357 -0.00051914545 0.00026091246 0.0010958491 -4.2186934e-06 -0.00012160413 0.00047596797 0.0001597018 -0.0014279718 0.00057021406 -0.00040081455 0.00049224833 0.0011213442 -0.00032561066 0.0010589593 0.00097952248 -0.0012104633 0.00068661128 -0.00083385024 0.0012581538 -0.00022772163 -0.0014671338 0.00084960647 -0.00057285774 0.0013196511 0.0003743665 0.0015488496 -0.00093174295 0.0006557802 -0.0015667194 0.0014696394 -0.0014414476 0.0011136567 0.0013535315 -0.001344553 0.00053092226 0.0012390476 0.0015012752 0.0008333851 0.00090592325 9.0372596e-05 0.00053542986 0.001185985 0.0012912388 -0.00059187278 -0.00013303978 -0.00041129568 0.00067574688 -0.0011088996 -0.00047200764 0.0010817614 0.0012254601 0.00033862001 -0.00081497012 -0.00011458856 0.0012753587 -0.0015196662 -0.0012492188 -0.00087587279 -0.0012748974 -0.00033743746 0.00035491481 -0.00024294101 -5.3269676e-05 0.00010667846 -0.00017041857 -0.00092410878 -0.00081229792 0.0011254381 -0.0010986786 -0.0013922917 -0.00067607168 0.00091134111 0.001430937 -0.00073775207 0.00099131011 -0.00075746235 -0.0014263027 0.0011027143 6.5691438e-07 7.1922448e-05 -8.7392327e-05 -0.00091331522 -0.00082163146 -0.0014854125 -0.00048669204 0.0014995303 0.0012430191 -0.0016831582 0.00077325071 0.0012587206 -0.00029990883 -0.0004005009 -0.00097907649 -0.00081913557 0.00014196039 -0.00019333926 -0.0014303001 0.0015570441 -0.00020316141 0.0016318916 0.00061595713 -0.0011882909 0.0010623879 0.00086364505 -0.00018266351 0.0016103302 0.0014049978 -0.0007516967 -0.00060026691 -0.00096130068 0.00031913721 0.0012717078 0.00035448707 0.0010801811 7.1189555e-05 -0.00033785205 0.00044113456 0.0011325199 0.0010015797 0.00070232427 -0.0015589568 -0.00023608854 0.00066845998 -0.00049751694 0.00089679623 0.001182658 -0.0002662992 0.00067862507 -0.0014458873 0.00096652849 -0.0014153237 0.00049073965 0.0014607559 -0.0011003707 -0.00082510989 0.0014149775 0.00023238162 -0.00093189144 0.0012528587 -0.0015183677 0.00054106442 -0.001268085 -0.0011298514 -0.0012666979 -0.00040732799 0.00034742092 -0.0016303534 0.0011176061 0.001011862 -0.0014068774 -0.00059158681 -0.0015906253 -0.00099809398 -0.0011794189 -0.0012021681 -0.00099377113 -0.0016924874 0.0014900924 0.00064728531 -0.0012597559 0.0011719719 0.00066585914 -0.0016168591 -0.0003574857 -0.00095197547 0.00031762334 -0.00081218913 0.00092574436 3.8224993e-05 0.0011294398 -0.00051605707 0.0015007283 0.00084763253 -0.0016600529 -0.0012652916 0.0010754721 0.00096701458 0.0013550802 0.00071367179 0.00013762845 0.00015858019 0.0013999287 0.0016023706 -0.00031981172 0.00019132564 0.001569091 -0.0015063552 -0.0010792247 0.00011390481 -0.00043821672 0.00075597683 0.00079727627 0.0006904258 -0.00091238698 0.00066887122 0.00095039106 -0.00094178179 -0.0011636005 -0.0014020724 0.00055607239 -0.0014753913 -0.0014149718 -0.0013444454 0.00060636835 -0.0015898228 0.0015636527 0.00043555 -0.00082305464 -0.0015497494 0.0013450404 -0.0012090864 0.00073526497 0.0012363165 0.0011787437 -0.00073889777 0.00071050465 0.00085178815 -0.00028108852 0.00052719557 -0.0012504943 0.001130952 0.00060812774 -0.0012502891 0.00033934851 -4.0714367e-05 -0.00023830916 -0.0011241001 0.00048587113 0.00053819094 0.00076187652 -0.00093790039 -0.00085862313 0.0011124697 0.00026665398 0.00048790383 0.0012989308 0.0013215385 -0.0012903995 0.0014845422 -0.0016709556 0.0005268032 0.00059455814 -0.0015857628 -0.00065037835 0.00040426233 -0.00048012944 0.000949868 -0.00051226665 -0.0007307101 0.0011566589 0.0002565154 -0.0011387398 -0.00069960178 -0.00010578857 0.00015620732 -0.0014763372 0.0014953822 0.00059256935 0.0015131354 0.0013253666 -0.0012133016 0.0016148929 -4.7428446e-05 0.00092061324 0.0011434646 -0.0016786415 0.00068947376 -0.00017239197 -0.00093394867 -0.00021071325 0.00027274431 -0.0012191749 0.00013161165 0.00046930692 0.0015243414 -0.00049816113 0.001563268 3.9524868e-05 -0.0012525867 -0.00047959693 -0.00070511212 0.0011524354 -0.0016298848 -0.0013479121 0.00071067922 0.00014797611 0.00050302641 -0.0010090272 3.2955322e-05 -0.0011790412 0.00043107141 0.0011614847
said -0.00054557848 -0.0016233173 -9.5970805e-05 0.0011237033 -0.00035207398 0.00046465945 0.00044470615 0.00077849597 -0.00045111822 -0.00028491943 -0.00095219997 -0.0013322909 -0.00073859206 0.0014197784 0.0015294511 -0.00045862669 -0.00039432905 0.0013157898 0.00084849022 -0.00066506426 -0.0010140659 0.00095061568 0.00032472928 0.00075236824 0.001283467 0.0012960825 7.7232195e-05 -0.00041344241 0.001693722 -0.00049371185 -0.00074900431 0.0015973895 0.0002126826 0.00082060043 0.0011818706 -5.55798e-05 0.0010179566 -0.00099097169 -0.00065173593 -0.0004211741 0.00090419105 0.00019720492 0.00018893683 -0.00074349664 -0.00081618066 -0.00041707506 0.0015010168 0.00085712457 -0.0010257508 -0.0010726437 0.0012971743 0.0012110209 -0.0016394354 -0.00026744208 0.001042083 0.00065490277 -0.00017541205 -0.00046172662 0.00049590622 -0.0011079954 -8.8522727e-05 -0.0014672286 7.145905e-05 -0.0006685534 -0.0012353961 -5.032171e-06 0.0010707948 -0.0015910106 0.0013430662 -0.00086745928 -0.0012288059 0.00012122765 -0.00069925236 -0.00043219814 -0.0010665308 0.0012940054 -0.0008550667 0.0003025677 0.00037922876 0.00095311261 -0.001403172 0.0016427926 -0.00038519604 0.00078928651 0.00056791492 1.1606337e-05 0.0017618962 -0.0014122658 -0.00047594405 -0.0011633449 0.00034455943 -0.0015555969 8.4951796e-05 -0.00089860242 0.0012911655 0.0012546004 0.001619473 0.00087459414 0.00041994915 -0.0013031961 0.0012073418 0.0010946795 -0.0011006613 -0.0015611417 -0.00083788752 -0.0013124893 6.6853747e-05 -0.00094037666 -0.0014955046 0.0015233331 0.00088999612 -0.00093350321 -0.0014522085 0.0011350171 0.0016606799 -2.5465297e-05 -0.0010063995 -0.00092153018 -0.0017160056 -0.00018493156 0.00070465193 0.0010415069 -0.0014060913 0.00024710901 -0.0013963922 0.0015508757 -7.9919679e-05 -0.00070297281 0.00028257089 -0.00088154874 -0.00069655303 0.0016353898 -0.0011027138 -0.00045755351 0.00025535142 0.0013285854 -0.0011464211 -0.00096762116 0.0013659728 -0.00054009474 -0.00059514301 0.001028823 0.0015293168 -0.001375112 -0.0009670966 0.0010856767 -0.0016797455 0.00034073877 -0.0014320158 -0.0015812785 -0.00077702216 0.00086553098 0.0016458458 0.00042143621 -0.00096179341 0.0012013065 -0.001034822 0.0017066224 0.00047817506 0.00076901232 -0.00060477207 0.0015267722 -0.0013297141 -0.0012597459 0.0010459747 -0.00060769694 7.411922e-05 -0.00095616176 -0.00062344287 -0.00011043028 0.0016717301 -0.00096304138 0.0010808259 0.00072081864 -0.0012947822 -0.00086000061 0.00064668787 0.001045416 0.0012567055 -0.0015074764 0.0012099659 -0.0012936991 -0.0012603721 -0.0017055582 -0.0015067109 -0.0015893534 -0.0010560744 0.00045511767 -0.0010226804 -0.0018959293 -0.00056930952 0.00040548734 0.00028531719 -0.0015512102 0.0013218466 -0.00052992936 -0.00064743892 -0.00058577576 0.00061880535 0.0018525403 -0.00060401455 0.00023948365 0.00078644179 7.6328297e-06 -0.0005637607 0.0011690024 -0.00065068615 0.0012249076 0.00058920414 0.00071271457 0.0015011429 0.00044005836 -0.00033736156 0.00026327156 -6.8723028e-05 -0.0013769736 -3.6590725e-05 0.0014391082 0.0005859168 -0.00045963304 -0.0010888135 0.0017528961 -0.0006891127 0.001063459 0.0017786565 -0.0005210808 0.00060401252 -0.00017589737 0.0016047028 0.00041688053 -8.3059873e-05 -0.0014140091 -0.00026770783 -0.0013858302 0.00045315933 0.0016485092 -0.00077887392 -0.0011238803 -0.0012084258 0.00083349925 0.0016497077 -0.0010664039 -0.00069948565 0.00085207977 -0.00096123706 0.0010862157 0.00025208885 -0.0014690926 -0.00012672819 0.00029290814 -0.00037277382 2.4783447e-05 -0.0013852128 -0.00026856031 0.00030778136 -0.00046786136 0.0011656134 0.00095957948 0.000609104 0.0013204475 0.00097073161 -0.0012595785 -0.0011252632 -0.0016851007 -0.00078809238 0.00059561408 -0.0011501332 -0.00014355195 -0.0017269091 0.0013882617 -0.0015018887 -5.0043483e-05 0.0011982563 -0.00017456469 -7.3968127e-05 -3.2148353e-07 0.00045421431 -0.00091760175 -0.0005874277 0.00064828875 -0.00093126594 0.0014355535 -0.0017347399 -2.0481752e-05 0.0011699746 -0.00083667244 -0.00035713729 0.00051821669 -0.0011622098 -0.0012758527 -0.0012808114 0.00030577317 -0.00048747627 -0.00065283169 0.0013015138 -0.0007594357 0.0014047488 0.00059175043 0.0016702171 0.0013195548
and 0.00059885578 -0.0016037457 -0.00096894347 -0.00078673946 -0.0010044001 -0.0015856707 -0.0013158717 -0.00019465169 0.00094780279 0.00013304796 -0.00018870711 -0.00072296307 0.00024520382 -0.00032381242 -0.0011278258 0.0013807848 -0.0011176597 -0.00025055234 -0.0015898225 4.8926267e-05 -0.00091678032 0.0016902514 0.00082053075 -0.00088323781 0.00011637503 -0.00031713423 0.00026009174 0.00034501782 -0.0013580631 -0.0010018434 -0.0012880397 0.00075940735 0.0015818269 0.0010040662 -0.00059770793 -0.00092345348 0.00021436832 0.0011741738 0.00046194904 -0.0015913773 0.0014091557 -0.00085079158 0.00065301888 -0.0002875186 -0.0012167839 0.0016556079 -0.0011407431 9.1112372e-05 0.00094462297 -0.00051187642 -0.0015359884 0.0016894519 -0.00055812532 -0.0003963229 0.0014702522 0.0012529067 0.0011680954 0.0013331018 -0.00076785911 0.0015175801 -0.00090333034 0.00029264652 0.00032621706 0.00086504727 -0.0013426204 5.9923768e-05 0.0013869662 0.00053596142 0.0011185105 -0.0015451149 0.00086165941 0.0012749237 -0.001400216 -0.0015851344 0.00016326665 -0.001232325 -3.1924552e-05 -0.0012432559 -0.00064715662 -0.00043374661 -0.00099390978 5.6228611e-05 4.8717531e-05 -0.0012870511 -0.00020342268 0.00079856621 -0.00071931246 0.0016739008 0.00066771224 0.00080155244 0.00069633353 0.00065991702 -0.0015693328 -9.2680391e-05 -0.0017036138 0.0015303184 -0.0014396599 4.3251021e-05 0.0012433007 -0.0016279765 -0.00099772413 0.0013397161 -0.00055554288 -0.00051710935 -0.0013073895 0.0013011105 -0.00054809247 -0.00088544132 -7.7361023e-05 4.3544893e-05 5.1762847e-05 0.0011661862 -0.0011761518 0.0011435249 -0.0015752129 0.00079072273 0.0010251314 0.0010263515 -0.00078325183 -0.00096572645 0.0011117496 -0.00027560297 -0.0013652155 -0.00012011839 0.0015480039 -0.00028590829 -0.0011799445 -0.0013221167 -0.00021298014 0.00025718976 0.00060853572 0.00039048062 0.00046113809 0.00072196883 0.00153584 -0.0016735111 0.00031888648 0.0015017493 0.00021521113 -0.0016378148 -0.00051638397 -0.0009967183 0.0012894953 -0.00051791442 -0.0013180665 0.00084161456 -0.0014434747 0.0012759358 -0.00020606801 -0.0013660507 0.00085402484 0.0013848927 9.6271324e-05 0.00076216517 0.00090662431 -0.0012515156 -0.0011497394 -0.0007272783 -0.0017850692 -5.2056708e-05 -0.00051361643 -0.0012788922 -0.0013997776 -0.0014638315 0.00015945411 0.00081164826 0.00024564145 0.00016154299 0.0012163484 0.00032669873 -0.0008742825 -0.00025492761 0.0015224025 -0.00010136113 -0.0011178058 -0.0014174562 -0.0015937319 -0.0012006026 -0.0013480245 0.00029680849 -0.00020086349 -0.00059684756 4.3111442e-05 0.0014771355 -0.0010432042 0.00082726422 0.0015871177 -0.00015636737 -0.00047514099 -0.0014592415 -0.00087812002 -0.0011990597 0.0011379567 0.0011832918 -0.0012265472 -0.00045522509 8.5116772e-05 0.0011641065 -0.00093698769 0.0012417678 -0.001637494 -0.0014984015 -0.001111727 0.00145094 -0.00011167595 0.00034656437 -0.001382875 -0.0016733666 -0.00096413749 -0.0010365886 0.0013462047 0.0012153353 0.001038648 -0.00080789439 0.00051009085 0.0014379602 -0.0010347294 0.00083878147 0.00015390628 0.0013940934 -0.00017051343 -0.0010312673 0.00035300318 -0.001125186 0.00054107676 0.0014353554 0.00019180063 0.00073033141 -0.00030369029 0.001613098 -0.00023445416 -0.0015873261 -0.00047480321 0.00071635656 0.00015651908 0.00032612344 0.00050457323 -0.00022732664 0.0015176665 0.0010308496 -0.0013038052 -0.00088782317 0.001429462 0.00029951049 -0.00070764293 0.00022308441 0.00058002456 -0.0017980973 -0.0013793252 -0.001069118 0.00046954435 -0.0010649228 -0.0012446741 -0.00020939355 0.00028233166 -0.00093639648 0.0012564027 0.0017378482 -0.00028081625 0.0016831127 -0.00076928339 0.00089314114 0.00022735535 0.00073137973 -0.00066289358 -0.001011459 -0.00038639642 -0.00097956578 -0.00094411633 0.00021661149 0.0013027578 -0.00010278718 -0.00094728085 0.00058348326 0.00051900826 0.0011698368 2.7763566e-05 -0.00030232029 -0.0014915046 -0.00040982451 -0.00041980637 0.00039549085 -0.00073169038 0.0014217036 0.00041284171 -8.467993e-05 0.001381479 -0.0016178201 0.0006044578 1.7261314e-06 0.00035741081 5.2012976e-05 0.00043709512 0.00012794568 0.0014620812 0.00033770804 -0.0010909055 -0.00032678078 -0.00015249214 -0.00018833966
j 0.0011034382 0.00024360037 -0.0012346201 0.00026695346 -0.00066496257 -0.00086049794 0.00041501602 0.001228821 -0.00010990789 -0.0012307554 0.0013034772 -0.0014976461 -0.0014905836 -0.0017017556 0.0013451629 -0.00094020652 -0.00032400573 -0.001539827 0.00079393899 -0.00019364459 0.00083682884 -0.00083386502 -3.5743244e-05 -0.0012807539 -0.00030161103 -0.00027052918 -0.0011459609 0.0014388702 0.0004553365 0.0002986922 0.00025891891 0.00049315317 -0.0010178098 -0.0016338234 -0.0010399781 -0.0016320449 0.00019701874 1.6348395e-05 -0.0010477415 -0.00017666206 -0.0011573831 0.0013028833 0.001190868 3.6149228e-05 0.00024791807 -0.0010065685 -0.00026884789 0.00053923862 -0.00028420953 -0.001141167 -0.0015788591 -0.0014247808 0.00013376416 -0.00022501237 -0.00067868666 5.521427e-05 -0.0012749623 -0.00062220771 -0.00074689562 0.0015122774 -0.00024879153 0.00028753045 0.0013164538 0.00087633659 -0.00066228199 -0.00055287743 -0.00064157537 -0.0015611332 -0.00075449125 -0.0013857831 0.0006632501 -0.00067595503 -0.0011113216 0.0013677236 -0.00065818289 0.00010746812 0.0012447081 0.00063376169 0.00019964323 -0.00089175871 -0.000894061 0.0012213807 0.0013868995 0.0011603874 0.00026788603 -0.0008214218 0.00029884049 -0.0010274309 0.00031096238 0.00041004524 -0.00059816078 0.00055562326 0.0013922013 0.0016211262 0.00094913814 -0.0014675659 -0.00025090922 0.00026567973 -0.0014866221 -0.0006103398 0.00085013302 -0.00055074965 -0.0010047103 -0.00036610276 0.00095510884 0.00076079206 -0.0016224716 0.0009104269 0.0016686898 0.0015679765 -0.00069561577 4.1423267e-05 0.00070376892 0.00043719955 -0.00051654939 -0.0011748938 0.0011781629 -0.00038810281 -0.0015963563 -0.0014926883 -0.00066037523 0.0010060422 -0.00030118556 -0.0013386308 0.0015604632 -0.0011882684 -0.00059849705 -0.00083841418 -0.0012032355 0.001425002 -0.00076372834 -0.00099633296 0.00079275097 -0.0013363013 0.0005024951 -0.0014850873 -0.00095471338 -0.0014234557 0.0010522254 0.0015106528 9.6401593e-05 0.0014993555 0.00052824651 -0.001471267 0.0014878283 -0.0012437998 -0.0004333925 0.001451643 0.0015823991 -0.00075639208 -0.0012777527 -0.00071457797 -0.0012685742 0.00093901256 0.0003250599 0.00065649662 -0.00035877273 0.00072128093 -0.0016643478 -0.0015726185 -0.0004955231 -0.0010023796 -0.00012396682 0.0015143467 -0.00086019322 0.0012352093 -0.0016725828 0.00021660674 -0.0013571307 0.0002554674 -0.0011210131 0.00020286422 0.0011180738 0.0015700524 0.00090888579 0.00082406803 0.00059018523 -0.00095662341 0.00091556838 0.00011458217 -0.00048585082 2.1060374e-05 -0.0005297577 0.0005710554 0.00095278159 -0.0014061843 0.0010747082 -0.00018697759 -6.1289917e-05 0.00029408696 0.0012194802 -0.0015268429 0.00011347736 -0.0015833382 0.00064825633 8.8024688e-05 0.0013452178 6.4461172e-05 0.00023467626 0.001138674 0.0013601969 0.0017204203 -0.0010256998 0.00013870206 -9.1222129e-05 0.0014901949 0.0015534452 0.00075551216 -0.00018326503 0.00067164912 -0.001631148 0.00054774666 0.00027600603 -0.0014809238 -8.1494429e-05 0.00025263435 -0.0012080732 -0.00011980881 -0.00020806654 -0.00098208582 -0.00020588863 -6.9134665e-05 0.0015273502 6.5652559e-05 0.0011434969 -0.00032416932 -0.00051051547 -9.3083305e-05 0.0016368212 0.0012330256 0.0015746467 0.0013967449 -0.0010393732 0.0010965404 0.00099610223 -0.001295426 -0.0015227591 0.00043239992 0.00037684859 0.0011365641 0.00079783576 0.00021798433 -0.00051694521 -0.0013650021 -0.0011036471 0.0012125515 0.0014227233 -0.00072645023 7.6846292e-05 0.0010212454 0.0014209102 -0.00066781719 0.0015766214 -0.0013415118 0.00049954187 -0.00070764881 0.00010918692 0.0015669435 -0.0016406371 -0.0010214973 0.0010124497 -0.00020445959 0.0015799019 0.00056521938 9.9118224e-05 -0.00030648583 0.00017714278 0.0016689117 2.3415287e-05 -0.00045392755 -0.0010490767 0.0013888967 0.00043471667 -0.0013340045 -0.0012892 -0.00049273577 -0.0011487613 0.00059551856 -0.0011900893 0.0014092663 -0.001462584 0.00060081051 0.0013056414 -0.0015455091 0.0013065708 -0.00056467729 0.0011537927 -0.00043516723 -0.00038430339 -0.0011392935 0.00053292635 -0.0013467767 0.00089149224 0.0011227304 0.0008886744 0.00048213798 0.00076761877 0.00094090088 0.0016984433 -0.00043260286
wsj -0.00018917295 0.00094571302 0.00020098494 0.00014898001 0.0016252177 -0.0010485207 0.00081972207 0.0010104137 -0.00058947771 -0.00084028358 0.00096201384 0.00010040517 -0.0013518061 -0.0015242645 -0.0011553364 6.0699317e-06 0.00073797954 0.00026297453 -0.00096473942 0.00067584799 -0.0014816577 -0.00066134235 0.0012364314 3.4581044e-05 -0.00049925968 -0.0012636568 0.001152005 0.0013192737 -0.00053725007 -3.3358348e-05 0.0010029239 0.0016859737 -0.00087555044 0.00086469343 -0.00049802032 0.00049342657 0.00053619657 -0.00010604855 -0.00070245453 -0.00056037673 0.00092720252 0.0010248553 0.00045015613 0.00060472009 -0.0013017193 -0.00025990937 -0.00097576267 0.0013336922 0.0011656814 -0.00023198201 0.00091603183 -0.0014315804 0.0008135286 -0.00071901933 0.00028939801 -0.00073697593 0.00037308942 5.1108655e-05 0.00047312921 0.00072086335 -0.0005180958 -0.00070868287 0.0015980232 0.00076370582 -0.0010284868 -0.00074167497 0.0015545605 -0.0015196473 0.00099358591 0.0012225132 -0.00030016663 -0.0015024068 -0.00067209138 -0.00051865709 -0.0015146552 -0.00019855851 0.0013038461 0.00057354156 0.0011382541 -0.0013860633 -0.00065968325 2.2517594e-05 0.00031252185 0.00040587704 0.00088612217 -0.0015236326 0.00063577917 -0.00049867929 -0.00047522533 0.0014474107 -0.00070786243 -0.00028391249 -0.0012996843 0.0010673973 -0.00025304037 -0.0015286062 -0.00096952438 0.0010887204 0.00017500628 -0.0013989366 -5.0930779e-05 -0.0013967317 -0.0010315769 0.001311835 -0.00038607593 -0.00012300155 -0.0012517705 0.001230573 -0.0011874477 0.00052225852 -0.0011683095 -0.00077180582 -0.0013337112 -0.0013203719 0.0016088478 -0.00030465631 5.5129887e-05 0.0007971244 0.00017830695 0.0014210705 0.0015643592 -0.00088448403 -0.0015632011 0.0014150789 -0.00053837628 -0.000820391 -0.0013571703 -0.00055209064 0.0011749499 -0.001544082 0.00026724159 -0.0004113139 -0.00091013219 0.0010487158 3.4004755e-05 0.00035893559 -6.2003899e-05 -0.00022247003 -0.00010891966 -0.001337768 -0.0016034263 0.0014076328 -0.00057747983 0.00010081469 -0.00081461924 -0.0015196902 0.0010433827 -0.00034648465 -0.00061984907 0.00066516292 -0.0013912678 0.001100344 -0.0013285293 -0.00016258366 0.0014109851 0.00067113776 0.00036342072 6.6675966e-07 0.0015073915 -0.00088450126 0.00092024903 0.0014706095 0.00066152529 0.0014671754 -0.00056295603 0.0012792376 -0.0013238433 9.5913769e-05 -0.00044521285 0.00036647922 -0.00086555799 -0.00094381633 -0.00043785645 0.00092451397 5.7915207e-05 0.0003469963 0.0014716807 -0.0015860585 1.639921e-05 0.0014165316 -0.0011186567 -0.00075519405 -0.0005463722 0.0011632397 0.0013932383 -0.0012461647 -0.0003573141 0.00030300193 0.00016426797 0.00089213758 1.5308151e-05 -0.00048533996 0.00091682299 -0.00091054389 0.00032424409 0.0015615723 -0.00097090844 -2.4103241e-05 0.00052441994 -0.00066418404 0.00035013276 -0.0010490405 -0.0013552827 -0.00020363581 -0.0010075459 -0.00079670351 -0.00080970005 -0.00057150744 0.00014322177 0.0010046152 -0.00027662615 0.0013097699 -0.0015506841 0.0008383466 -0.00078212097 0.00032413731 -0.00012890842 -0.0011337119 0.00053174968 0.0014008244 -0.0010684596 -0.00059687969 -0.00011680296 -9.7582735e-05 -0.00094574085 -0.00098733709 -0.0010527214 0.0012283705 -0.0012150408 -0.00050060346 -0.00044133895 -0.00020067759 -0.0011332862 0.0010162365 0.0010486771 0.0015420925 0.00049641595 0.00087283266 -0.0003749803 -0.00047731277 0.0016190843 0.0015533252 0.0010264851 0.00064959488 0.0009644673 -0.0015197068 -0.0012699792 0.0009781993 -0.0012764153 0.0013463864 -0.00060710206 -0.00065803237 0.0015257216 -0.001504334 0.0011791394 0.0012180054 0.0016185076 -0.0010747222 -0.00039478578 0.0012131321 -0.001110623 0.0015962715 0.00073620008 -4.461575e-05 -0.0012479333 0.0016981123 0.00026241312 0.001169525 -0.00082006899 0.0015067906 -0.0008164781 4.4132572e-05 -0.0010544418 0.00032564154 0.00048796635 1.3259646e-05 1.8972174e-05 2.1808621e-05 0.0002748761 -0.0010047351 0.0014570279 -0.0014476354 0.0012465023 -0.0016454533 0.00043253103 0.00085395935 0.00052231329 -0.00079614483 0.00094419625 -0.00081354263 0.00059258525 0.00038940346 -0.00037976337 0.0015771883 0.0012211583 -0.00044022885 -0.0010374548 0.0012303262 0.0011066516 4.5014232e-05
wall 0.0016373394 0.00058722234 -0.0011544441 -0.0012274765 0.0014433812 -0.0012493446 -0.00044947147 0.00085494551 -0.0014200909 0.0012331364 0.00096289435 0.00032114494 0.0012977828 -0.0017337655 -0.0013653005 -0.001364123 -0.00081490871 -0.0010467877 0.00036767026 -0.001183412 0.0014541978 -0.0015847787 0.0010195613 -0.0010479908 0.00076713838 -0.0012212299 -0.0015874851 0.00061572978 -0.00061950559 0.0014181492 -0.00032921034 -0.00048908434 0.0013027032 -0.00062414486 0.0011691696 -0.0014711395 0.00057250686 0.00078790111 -0.001520864 -0.0013804254 0.00048215504 0.00059369387 0.00014219362 0.0012602776 -0.0015503292 -0.00059214106 0.0012302106 -0.0010004918 0.0008674222 -0.0016552235 -0.00046347914 -0.0004265293 0.00034595674 -0.0015327026 -0.00067052594 0.0015633246 0.00074906874 0.00053665292 -0.00011372517 0.0015064086 7.2309485e-05 0.0015070084 0.0015559645 0.0010270099 -0.0013701045 -0.0010450063 0.00082186511 0.00062657613 -0.0012805476 0.0013617381 0.001623836 -0.00012081453 0.00012584988 -0.00023698703 0.0015138546 -0.00072072778 -0.0011918939 0.00024935324 0.00024433029 0.0014298126 0.0012713084 0.00023893658 -0.00052047573 -0.0013222753 -8.8159315e-05 0.00036138925 0.0012967021 -0.00068067963 -9.7306011e-06 0.00059926155 0.00098337163 -0.0007938082 0.0013927113 -0.0009526792 -5.1685678e-05 -0.0012862611 0.00098923466 0.001593882 -0.00020722621 0.00090538122 -0.00060941617 -0.0013496507 -0.00026415967 -0.00043957832 -0.00080716936 -0.0015626429 -0.0011583025 0.001684845 6.683269e-05 0.0016320103 0.00081450323 0.00011682769 0.00042902518 0.0013280092 7.1159615e-05 0.00018591281 -0.00064143853 0.00023510994 -0.0011834949 -0.0010718716 -0.00010350938 0.0008917558 0.00020399642 -3.7887461e-05 -0.00050888897 0.0015701446 0.0014356131 0.00078526471 -0.00010211401 -0.0006476338 0.00070494844 0.00081431301 0.00081463408 0.0015502016 -0.00074159628 0.00080657483 0.00090594485 -0.00023434478 0.00036252642 0.00061415741 -0.00057066791 -0.00078852964 -0.00050009281 -0.0014451862 8.9829606e-05 9.980482e-05 -0.0011750389 -0.00017433855 0.0015978357 -0.00015884494 0.00080793974 -0.00084231014 9.1777256e-05 0.00026052355 -0.00087111176 -0.001355953 -0.0011576242 0.00015067964 0.00019858549 -0.00099841272 -0.001261708 -2.076971e-05 0.00084405119 0.0010710629 0.00090331567 0.0012410466 -0.0011815162 0.0016443102 0.0014014909 0.0010461205 0.0014487959 -4.9514598e-05 -0.00065141858 0.0014765776 0.0005761853 0.0011269429 0.00035566062 -0.00041671406 0.00046300708 0.00070840534 -0.0014027139 0.00040334565 0.00012538048 5.6583967e-06 0.00040047115 -0.00034110082 -0.00056984182 0.00052821002 -0.00031230529 -0.0010461847 -6.0250357e-05 -0.00079227082 0.00049208791 0.00016767828 -0.0010948962 -0.0001433258 0.001297016 -0.001493126 -0.00014855892 0.0015862469 0.0002537384 0.00034898505 0.00047166535 0.0010747309 -0.00088375434 -0.00030690781 -0.0012414441 0.0011650223 -0.00032996805 -0.001162044 -0.00091692654 0.0016010468 -0.00067339081 -0.00088035088 -0.00080404064 0.0006334277 0.0007235196 -0.0012690069 0.00028386919 -0.00068646419 0.001308524 0.001259636 0.0013076346 -0.0005704182 0.00028528113 -7.5788688e-05 0.00044540892 0.0014108638 -0.00022273602 0.0011215578 -0.00027551322 0.00045943318 0.0005621537 0.00068311644 0.00010294053 -0.0010733377 -9.7536154e-05 0.0004195284 -0.00091319688 -0.0003158052 -0.00079177704 -0.00012239926 0.0014217518 -0.00087476522 -0.0013948752 -0.00096431113 0.0012269622 -0.00018737721 -0.0014529951 -0.0015755794 -0.0015951943 -0.00084368006 -0.00041527546 0.001614926 0.00087007467 -0.0013180138 -0.00030864502 -0.00072390569 0.000958202 0.00089228991 0.0012502855 0.0010070512 -0.0006493422 -0.00043301992 -0.0010766122 -0.001289385 0.0014765585 0.00086522795 0.00062487903 0.00092170038 -0.0010397917 0.00014825858 0.001195288 0.0013718971 -0.0013131573 0.00020107471 -0.00068801304 -5.4427983e-05 -0.0016498701 -0.0015103952 0.00024533743 0.00058032421 0.0011141115 0.00012304002 0.00061428337 -0.0016032938 0.0016352608 0.0015196283 -0.0010285024 0.0011859077 0.001108927 0.0010335075 0.00030520553 -0.0012747806 0.00082715944 0.00097637181 -0.00059181947 -0.0015903841 -0.00021280904 -0.001473084
street 0.00059323612 -0.001056212 0.0017901127 -0.001529498 -0.0017342966 -0.0016757428 0.00010864448 -0.00015438479 -0.0004429472 -0.00083819329 0.0001363866 -0.0012829722 0.0016039866 0.0001871807 0.00030359189 -0.00057135435 -0.0014069042 0.00067805691 -0.00063339568 -0.0014764507 0.00078457134 0.00072941411 -0.00086746964 -0.00038199514 -0.0011484378 0.0015128327 -0.0015284542 -0.00053470617 -0.00041532627 -0.0012264285 0.00053326506 -0.00089687947 6.0418126e-05 0.0013018645 0.0012325444 0.00077410293 -0.0015624681 -0.00056161935 0.0004139329 -0.00060283102 0.0012012795 0.00030671203 0.00064931292 0.0013094211 0.0011781529 -0.00067229691 -0.00090337551 0.00013623493 0.00046035889 -0.0012739782 6.2834542e-06 0.0014281573 0.00011614506 0.00073389022 0.0014866267 -0.00081352331 0.0015448227 0.00076007011 -0.0011314353 0.001233045 0.0002330882 0.000103389 0.0013586731 -0.00025276255 -0.001178681 0.00097193773 -0.00037261035 0.00090078096 -0.0015671661 -0.0015502491 -0.0014804751 -0.0014570261 -0.00013131592 -0.00036329596 -2.229536e-05 0.00085040397 -7.1870782e-05 0.00046065301 -0.00063943001 -0.00039542231 0.00099554996 0.00077766721 -0.00048760886 0.00044297453 -0.00027773506 0.0011182668 -0.0010094406 -0.00066314993 0.00043023142 0.00025926693 0.00096030458 -0.0015072115 0.0016543685 -0.0015123797 0.0014335423 -1.7821145e-05 -0.0005431266 -0.0013940531 0.00089158711 -0.00014280874 0.00031584385 0.00031496829 0.0016462924 0.00036117618 -0.00039988858 0.00064625271 -0.0014440863 -0.00012025815 -0.0015909013 0.001158696 0.0014398919 0.0014573054 0.0015247723 3.0181278e-05 0.00070502353 0.0013912536 0.0016057143 -0.000773145 0.0013113436 -0.00078750169 -0.0012077489 -0.00071393081 0.00086050096 -0.00026344604 -0.0003022514 -0.0013682978 0.00025039961 2.2403092e-05 -0.0014080782 -0.0015662938 -0.0017373619 0.0017381405 -6.0958853e-05 0.0013097979 -2.6084841e-05 -0.0010148835 0.001080831 -0.0011045791 -0.00011790769 -0.0013945786 -0.00054233469 -0.00052955194 -0.00094981823 0.001013727 4.6137866e-05 0.00070398214 -0.00063451781 0.0013418222 -0.00057082821 -0.00082708831 -0.00024064764 -0.0011489615 -0.00018341876 -0.001700715 0.0014731507 -0.0017241292 0.001668982 0.0015571815 -0.0006255543 0.00050704757 0.00067942654 0.00056922971 -0.0012566409 9.1428577e-05 1.1056764e-05 0.00031646554 -0.0010896981 -0.00082488888 0.00048875163 -0.00014394498 -0.00096324651 -0.0014264771 0.0015117859 -0.00058536854 -0.00049952604 0.00033704503 -0.0011867271 -0.00036651385 -0.0010223296 -0.0002562766 -0.0013896066 0.000279145 0.00097983424 0.00078574114 0.00092946592 0.00040356995 -0.00057923986 -0.0013732859 0.0008250018 -0.00070303207 -0.00049263786 -0.0010804575 0.0017506873 0.001677735 -0.0011806611 -0.0012849993 -0.00067486393 -0.00056051923 -0.0010952707 -0.00055765553 0.00090463331 -0.00015167282 -0.00070574041 -0.00046754151 -0.0014889542 0.001480871 4.8587331e-06 -0.0013751027 0.00011305362 0.0011459553 0.00080477161 0.0010034912 0.00061356643 -0.00058046111 -0.0011272992 0.00072186149 0.001288606 -0.00098260888 0.00011131704 1.3035169e-06 0.00052022195 0.00011301576 -0.0011380019 -0.00056082796 0.00039938206 0.00094634417 0.000220459 6.3208085e-05 -2.8078373e-05 0.0015196351 -0.00036399791 0.00033481343 -0.00020460108 -0.00070564845 -0.0009190627 0.0011427439 0.00046099315 -0.00012572354 0.0013442818 -0.0008202988 0.00088768959 0.00018483753 -0.00076002965 -0.00036061852 0.0015582523 0.00057353021 -0.0012426224 -0.00070087134 0.00036317768 -0.00066516158 0.00055815326 0.00038267166 0.0009910583 -0.0010639097 -0.0007222633 0.00027381381 -0.00061363587 -0.00093979167 -0.00092053931 7.605664e-05 -0.0010450707 9.6876152e-05 0.0003141388 0.00050505489 -0.00085075293 0.0012942358 0.00031703597 0.0011350439 0.001595414 -0.0010020307 -0.0012456046 -0.00065175461 0.00015251125 0.00068033335 -0.0013041573 -0.0016105057 5.2181796e-05 -0.00013962046 -9.5023686e-05 0.00099334959 0.00032883522 -0.00090456876 0.0005206652 -0.0016015964 -0.0012180273 9.0306828e-05 0.00065541593 -4.5142129e-05 0.00072577223 0.0014790453 0.00078499399 -0.00044967668 0.00085013919 0.00031802029 -6.6607078e-07 -0.00075641763 0.00082277338 -0.00050666957 0.0011823623 0.0011342894
journal -0.0012731877 0.0015472049 -0.00062905077 0.0003264414 -0.00025259104 0.00076527294 0.0014208906 -0.0015080062 8.0138176e-05 0.00040511359 0.0015933325 -0.0011101385 -0.00058608607 0.00052981067 -0.0012048872 0.00068642409 0.0011725265 -0.0011249679 0.0011252244 -0.00040753547 -8.5768064e-05 0.0015518675 0.00090214878 0.00053805712 0.0012981741 7.7266392e-05 0.0014962353 -0.00099272933 -0.00061563461 -0.00054869353 -0.0016710059 -0.00087662955 -0.00096039975 -0.00045573941 -0.00019872015 -0.00016765713 0.00086753041 0.00075691607 -0.00086083915 -0.00010382377 -0.00028594921 -0.00010295505 0.0015883988 0.0011127976 0.00027886103 0.0011357004 6.045886e-05 -0.000149069 -0.00056406029 0.0011911308 -0.001300359 -0.0004987375 -8.6379187e-05 0.0014343126 0.00099913217 0.0011653352 -0.0014908168 -0.001112985 0.00019606767 0.00057133415 -0.00075572339 0.00066149567 0.0012900793 -0.00063198531 -0.0012693343 -0.00028365068 0.001529179 0.00015242485 -0.00015357754 0.0015134872 -0.00055423303 0.0001986876 -0.0012805763 0.0013894362 -0.00070522691 -0.0013075841 -0.0010461751 -0.00032422249 -0.0012403227 -0.0013327886 -0.00071236643 0.00063484797 -0.00046858384 0.0010209878 -0.00070714718 -0.0011020355 0.0012532728 0.0013910211 -0.0016150557 -0.00048362926 0.0012012846 -0.0010259621 0.0016373185 -0.00036412 -2.321295e-05 0.00015719568 0.00043822706 0.00010342254 -0.00042764927 0.00079714094 0.00049283786 0.0014629239 0.0015797123 -0.0017357958 0.0011013343 -0.0013584738 0.00092916569 0.00066885044 7.1019815e-05 0.00021044302 -0.00071866211 -0.001143806 0.00053479447 0.001379081 0.0012220986 3.4327273e-05 0.00057273364 3.6390302e-05 0.00057083851 0.00045411228 0.00025004748 -0.00018004006 -0.0010615195 -0.00063393003 8.933089e-05 0.00053315447 0.001316378 0.00088601222 -1.6054457e-05 0.0011522259 3.4304252e-05 0.00087745063 -0.0017151561 0.00058180914 0.00037544646 0.00023493526 0.0017484355 0.00049376924 0.0004129837 0.00072631461 0.0012433633 0.00145091 -0.00080538652 -0.00083902711 0.00014292711 -0.00018481769 -0.0011719795 3.546894e-05 -0.0008667162 0.00047415041 -0.0016298249 -0.00083344639 0.001721001 0.00062121643 2.710129e-05 -0.0017486109 -0.00048834988 0.0010484465 0.0013024086 0.00027401303 0.0015969322 0.00034463327 -0.0009589527 0.0016718456 -0.00091218168 -0.00027209739 0.0010722 -0.00065648294 0.0016098781 -0.00053790642 -0.0016232696 -0.00045527678 -0.0013959021 0.00019817142 0.0015511414 -0.00081074325 -0.0015224639 -0.0005407065 0.0010957553 0.0016236452 -0.00086638564 -0.0015643405 0.00070089294 -1.7777578e-05 -0.0014468085 0.0014748023 0.0008001728 0.0012954093 -0.00055546092 0.00024361293 -0.0013966335 -0.00016043449 -0.0013165126 -0.0014849727 -0.0010356855 0.0012181887 -0.0016150274 0.00053510192 0.0006829034 -0.00080127968 -0.0015953725 0.00073657336 -0.0008795067 9.8465789e-06 0.00094201264 -0.00097288127 0.0014310712 -0.00024115747 0.0016569485 -0.00021001344 0.00010602941 -0.00033696083 0.00071322569 0.00054773659 0.00090774038 0.00088611257 -0.00085367978 0.0012295895 0.0016521267 -0.00049367349 0.0011779439 0.00062251167 0.0015534689 -0.00035441457 -8.1691956e-05 -0.00070300401 -0.0010605012 0.00084326701 0.0011589574 -0.00089569308 -0.00087919144 0.00093417411 -0.00052389066 0.0013065044 -0.0003795278 -0.00061692914 9.3319268e-06 0.0015791772 -0.00031440935 0.00010200216 -0.00047916928 0.00095749093 -0.0015873143 0.0015711834 0.0010472444 0.0013739117 -0.00015718468 -0.00067145401 -0.00016709317 0.00046370909 -0.00059160008 0.0010143613 -0.0015585417 -0.00087478757 -0.0012853536 -0.00092594622 -0.0014221121 0.00063625426 0.0010338958 0.00029174739 0.00089523412 0.00082576886 -0.00034098569 0.00027251471 0.0011530112 -0.0012739406 0.00042726798 0.00026079785 0.0015039833 -0.00045416108 -0.0011697573 -0.0016702372 0.00066601008 -0.00027135396 -0.0011654928 0.00099917594 -0.0014922986 0.00029016405 0.0016019444 -0.0006342206 0.00085491122 -0.00023086669 0.00061231229 -0.0011443426 0.00066777354 0.0014371669 -0.0012138842 0.00048938161 -0.0011975979 -0.0010318011 -0.0013771856 8.8297646e-05 -0.0013202439 0.0015091308 0.0013482734 0.00051811535 -0.00044188029 -0.00096410169 7.9877973e-05 -0.0014414452
its -0.0011284103 0.0010326734 -0.00071554101 -0.00097156852 0.00094929105 -0.00050163624 0.00085233472 -0.0014061395 0.0016929016 -0.0011136995 0.0013408381 0.00081124326 -0.0012678345 -0.0016241369 0.0011209756 0.00037722685 -0.0012762415 1.50301e-05 -0.00040966945 0.0016018257 -0.001534747 -8.0215257e-05 -0.0010857309 -0.0001802226 0.001347142 -0.00028997287 -0.0017305408 0.0002658942 -0.00088051567 0.0016623391 0.00051991933 -0.00078380405 0.0016255068 0.00073738006 0.0013933126 0.001146561 -0.00053119718 -0.0010569918 0.0014705582 0.0010914137 -0.00069678813 0.0011521733 -0.00069377682 -0.00035386579 0.00010997448 0.0015241675 0.0015488659 -0.00029206768 0.00065731752 0.001393536 0.00054285413 -0.00090406189 -0.00075359142 0.0012886873 -0.00059412222 -0.0014983825 -0.0002531916 0.00088216068 0.001121403 0.00087559066 0.00076123158 0.00041951032 0.00073240139 0.00010685845 0.0011886914 -0.0015098396 0.0017174735 -0.0015933999 -0.00067838345 0.00099561887 0.00018508048 0.00062748767 -0.00033687861 -0.0014963553 0.00095584517 0.00042230991 -0.00021085587 0.0012978941 -0.00058809173 0.0002682971 0.0012572587 -0.00049143989 -0.00086022576 -0.001600095 -0.00058298482 0.0012957749 -0.001145149 -0.00036506783 0.0016515196 -0.00031120208 0.0015255937 -0.0016325555 -0.0011886746 -0.00099785242 0.00064598722 0.00048829423 5.2868025e-05 0.0011631293 0.0015040683 0.00035941953 -6.4263259e-05 0.0015222086 0.00058012805 0.00054720917 0.00074795185 0.0003914015 0.00058547687 -0.0012008044 0.00061833608 -0.00099157984 -0.00074276357 0.00015680659 0.00092599849 0.0016528146 -0.0014496547 -0.00084160035 -0.0016963474 0.00024123232 0.00078949309 0.0013155128 -0.0005350454 0.0014786544 0.0012445588 0.0015287844 -0.00030951254 0.00059544167 -0.00023922703 0.0011138067 -0.00106232 -0.00020722114 0.00021411041 -0.0013396675 -0.0016902303 0.00134709 -0.00075615273 -0.00052860851 -0.00088908215 0.0016472385 -0.00084735203 0.00084472168 -0.00063620659 -0.0008119652 -0.00044026558 0.0009279644 0.0015991062 0.0001883229 0.00011861608 -0.00055374461 -0.00064326462 -0.0014497597 -0.0011478225 -0.00058037555 -0.0010918955 -0.0004756492 -0.0014758089 0.00053779519 -0.00073838298 -7.6772398e-05 0.00032097448 -0.00084646879 -0.0011880811 0.00051755848 0.00033401797 -0.00028035944 -0.00090769009 0.00035909077 5.8382911e-06 -0.00067404995 0.00043072554 3.5744557e-05 0.0015672385 0.0010520353 0.00012654538 7.7857076e-05 0.00033069917 -0.0016374391 0.0015354701 0.00077083934 0.0011240387 0.001260515 0.00034141261 0.0012908468 0.00024419563 -0.00085417659 0.00089335081 0.00040328165 0.00094268477 -0.0014272549 0.00028297407 0.00043185285 -0.00089057634 0.00045638863 0.00026932557 -0.0014622017 0.0015546231 0.0010309359 0.0011070361 0.00053871016 -0.0010312292 0.00064633822 0.0015679576 0.0017391369 0.00057309138 -0.0011548985 0.00016390247 -0.00068795617 0.0010392494 0.00037641256 -0.0011866548 -0.00023727733 3.527007e-06 0.0015316457 0.00089712813 -0.00050784968 -0.0012869125 0.00017005292 0.00074276474 -0.00081012375 -0.00066147326 0.0014086653 -0.00049728592 0.00042554157 -0.0016946068 -0.00046567398 0.0014476874 0.00062090153 -0.00049530086 5.3459138e-05 -0.0010507848 0.0011412376 0.0015984281 0.0012291266 0.00036680137 -0.00092952937 0.00050550932 0.0013826173 -0.0012763813 -0.0014002291 0.00077229115 0.00090503343 -0.00044200342 -0.00046399736 0.0014638345 0.0013230441 3.7106758e-05 -1.1605722e-06 -0.00156603 -0.0017254986 0.00054687465 0.00011675829 -0.0012895337 -0.0015150047 0.00057239138 -0.001534486 0.0013153051 -4.9803057e-05 0.0002366652 0.0012347884 -0.0012648812 -0.00054747501 -0.0015640036 -0.0004535467 0.00046680192 0.00032892032 0.00079808937 -0.00012426754 0.00010189913 0.00060656521 -6.6609304e-05 0.00080921798 0.0015280551 -0.0011045027 0.00018661715 0.0014414504 -2.3096149e-05 0.00035697571 -0.00028514143 -0.00023842137 0.00099076529 -0.00077895244 0.00049771526 -0.00025778526 0.00091653934 0.00066657859 -8.3860883e-05 -0.00054368377 -0.00014204255 0.0011430453 5.3251966e-05 0.00038072446 0.0005981038 0.0015961101 0.0014413381 -0.00038706552 0.0015596689 0.00060892705 0.00053387706 0.0013229412 -0.0014634291 -0.00064862368
 -0.00094385579 -0.00025838806 0.00018969653 0.00160941 0.00010159543 0.00013706785 -0.0011789745 0.00040045285 0.0013746854 -0.00051300932 -0.0012423334 -0.00073680788 -0.00082752731 0.00047868688 0.00017338847 0.00077908096 0.00070255942 -0.00070063968 4.8862854e-05 -0.00037296664 0.00093654759 0.00068983674 0.0011481071 -0.00087074592 0.0015434807 0.00096652744 -0.0011234144 -0.0003256145 0.00055881793 0.00075250061 0.0012960894 -0.00020542793 0.0012302829 0.00018805024 0.00086858886 0.00032746317 0.00015737623 0.0016751123 -0.00049856381 0.00064639875 0.00070617994 -0.0015428441 -0.0012883145 -0.00031221911 0.00051989267 -0.00067693344 -0.00030362236 -0.00032457494 -0.00072671636 -0.00083207857 -0.00085049681 1.9654073e-05 0.0014628029 -0.0006913793 0.0013590594 0.00094927085 -0.0014264187 0.00082165393 0.0014407787 0.0010877682 -0.0015919688 -0.00087259791 0.0011602477 -0.0014395842 0.0015261677 -0.00017030924 -0.00068046839 0.00028482379 -0.0005228286 -0.00098550413 0.00029392826 -0.0010261437 0.0015932024 0.0010000956 0.00071485678 0.0011794681 -0.00047866843 0.0011750599 -0.0010259958 0.0003841866 -4.627636e-05 0.0012419794 -0.0013230655 0.0013943302 0.0001584151 0.00059796456 0.001193381 0.0008898371 0.00048783832 2.7452526e-05 0.0008428861 -0.0010045879 -0.00096428354 0.00035036728 -0.00099683262 -0.0012069048 0.00039530167 -0.0012781691 0.0014230766 3.0070185e-05 0.0015449326 6.873886e-05 -0.00058068708 -0.00074799039 0.00098577887 -0.00031347363 0.0011551124 0.0012878168 -0.0013214794 -0.00099810725 0.00028032248 0.0010045602 0.00048359577 0.0014355957 -0.00065908069 -0.0010671305 -0.0013233052 -0.00064558611 -0.0010578802 0.001064822 0.00019873082 -0.0012395311 -0.0005078715 -0.00033942092 -0.0004971262 -0.0013089313 -0.001333549 -0.00036386697 -0.00061288261 9.8875433e-05 -0.0014201809 0.0012899488 -6.0333336e-05 0.0015234954 -0.00028985436 0.00066091237 0.00028757006 0.001505046 0.00029166471 0.0014367169 -0.0012868624 -0.00098414801 -0.0011883816 -0.0012484291 -0.0010881904 0.0013270888 -0.0009311763 -0.0012786179 0.00028936422 -0.0016036484 -4.8360511e-05 -0.00041103299 0.0014732046 -0.00063420081 -0.0014851455 8.9285277e-05 0.0014733302 0.0010665513 -0.00075883139 0.00099436776 -0.00016404537 0.0013781696 -0.001110995 -0.0010498645 0.00048154232 0.0015172821 -0.0011490397 -0.0012394912 -0.00031052777 -0.00047796126 0.00060850562 0.00070059224 -0.0011775364 -0.0011032193 -5.0754054e-05 -0.00013699094 -9.5821153e-05 -0.00042941544 0.0014634132 -0.00037921497 -0.0010021975 -0.00098568562 0.0014664395 -0.0009012887 -0.00051745679 0.0010897851 0.0015324508 -0.00094137061 -0.001566173 -0.00010875517 0.00088240096 0.00092073769 0.00018940146 -2.6600578e-06 0.00019881508 0.00094515097 -1.1262251e-05 -0.00095804397 -0.00039079733 0.00072208373 -0.00037553511 0.00077510608 0.00038228539 0.0013949105 4.7012585e-05 0.0013003753 0.00027895445 -0.0013184997 -0.00071339385 0.0011483419 -0.0016333967 -0.00052988587 0.0011400803 -0.00065062015 0.00037312851 0.00079382549 -0.0014410488 -0.0010747517 -0.00079549331 4.448403e-05 -0.00021616535 0.0013466979 -0.0016314868 -0.00027775479 -0.00046915587 -0.00011559398 -0.00060561474 -0.0010779938 -0.0014872955 0.0013131868 -0.0014131222 -0.00025101085 0.00079843181 -0.0011681052 -0.0013836159 -0.0003402743 -0.0013225526 -0.00085902849 0.0004398415 0.00020525161 0.0014071065 0.0010823859 -0.0014033855 -0.00147693 -0.0011710227 0.0013772761 -0.0012781906 -0.00034133007 0.0015872678 0.00024349429 0.00066399248 0.00070552691 0.00073881302 0.00046371092 0.0013647785 -0.00011797796 0.0014292808 0.00032507256 6.0748222e-05 -0.00016909298 -0.00159443 -0.0011173369 0.00083732698 0.00035483032 0.00043625478 0.00031225887 -2.9328663e-05 -0.00036337136 -0.0015816239 -0.0011163781 0.001514486 0.00065152411 -0.00050547963 -0.0003119811 0.00050698896 0.0015218558 0.00027176543 -0.0013451773 -0.00060719065 0.00016897322 0.00013254151 -0.00040313342 -0.00092836097 0.00077592221 0.0013243573 -0.0010740326 -0.00093650375 -0.0015999243 -0.00095112005 -0.00068356941 -0.00017181211 0.0014391337 -0.0003536091 0.00099940889 0.0012797621 5.4867087e-05 -0.0012137456 0.00073758926 0.00053509418 0.0014074591
it 0.00071363279 0.00052775908 0.00075334497 -0.00052052457 -0.00046249275 -0.0014180375 -0.00010039168 0.00015713203 -0.0012506775 0.000938182 -0.00061744743 0.001489657 -0.0016836943 0.0011010549 -0.00024100054 -0.00056848826 -0.0012395909 -0.0005205418 0.0016203464 0.0011945381 0.00020414031 -0.00081117795 -0.00086999655 0.0010917761 -0.00048209645 -0.00085354998 -0.00066644727 0.0007675793 -7.2470648e-05 -0.0015910112 0.00093590614 -0.0012340468 0.0015427731 -0.00030172881 -0.0012984585 -8.9506575e-05 -0.00056017149 -0.00045958807 -0.001363654 0.00084030005 0.00071596139 -0.00045963153 0.00021474251 -0.0014790997 -0.0012895976 0.00017568412 -0.00099537533 -0.0012834276 0.0012443644 0.0012645243 -0.00070725812 0.0013827692 -0.00032121985 -0.0010492862 0.0011596194 -0.0011075874 0.0008596651 -0.0011462255 0.00079475273 0.00044289333 -0.0010847419 -0.00032669018 -0.00091160816 -0.00081637566 0.0014110972 -0.0010110645 0.0011274983 -0.00067648065 -0.0011722069 0.00040916435 0.00020830655 -0.00017507574 0.0010831701 -0.0005819127 0.0013382121 0.00097543193 0.0014677739 0.0010885089 0.001710622 -0.00025487968 0.00058564986 0.0009485503 2.048476e-05 0.00096571067 -0.0013844956 0.00085319817 0.00031850833 -0.0010731925 0.0015140203 0.00023505786 9.8653545e-05 0.00021674155 -0.0016285442 -0.00039497484 -0.00020787226 0.0014112752 -6.9959759e-05 -0.00077346351 0.000277496 0.0015399707 0.00048074892 0.0015217693 0.0015736154 -0.00048138271 -0.00081953034 -0.0015501216 0.00074631482 0.00044193093 0.00081936945 -0.0013930507 -0.00046126655 0.00063056109 -0.00098666991 0.0016128132 -0.0012616069 -0.0008564468 0.00051826268 -0.00087185297 0.0011570504 -0.0010527786 0.00064442825 0.00088070019 0.00033292241 0.001456167 -0.0010670808 0.0016711953 0.00019027411 -0.0011507988 -0.0010183458 -0.00068230019 0.00032534395 0.0013814494 0.00055687124 9.7307158e-05 0.0011342212 0.00019129986 0.001444315 0.0012249503 -0.0013020675 0.0015595218 -1.9675579e-05 0.0010050491 0.00039530097 0.0011741769 0.00063766446 -0.0005653656 -0.0010579507 -0.0012742917 0.00096213521 -0.00025864123 -0.0010628515 -0.0013385055 0.0015433345 0.00066750718 -0.00035230987 0.001046402 6.1003233e-05 0.0014935734 -0.0017722797 -0.0013224845 -9.9335572e-05 3.0786807e-05 0.0012451084 -0.00054610515 0.0010687815 0.00030550477 -0.00047975915 0.00054297241 0.00016197478 -0.00038078317 0.00018011661 0.0012742954 -0.00083463901 0.0014669488 0.0010799844 0.0011981734 -1.1037451e-05 -0.00074834202 0.0015554263 0.00038136981 -0.0010218867 -0.0014853363 0.0012096858 -0.00063544302 -0.00074433343 -0.0005492848 -0.00037029095 0.0013605041 -0.00071771402 -0.00065840787 0.00028742649 -0.0011037426 0.00090728968 -0.00052694418 -0.00062815566 -0.00087119383 0.00074415654 0.0011117974 -0.00033528957 -0.0014111068 0.00025206336 -0.00091928063 0.00062790239 5.024159e-05 -2.3466748e-05 -0.0014163142 0.0012138748 -0.0010780204 0.00057300949 -0.0016510668 0.001553225 0.00049129612 0.00072047411 -0.0012336161 -6.1829916e-05 0.00024158535 5.7046171e-05 0.0012653898 -0.0014806128 0.00069960044 -0.001282264 -7.6637189e-05 0.00045156869 -7.1036695e-05 0.0013050897 0.00046455764 -0.0016923633 -0.0015848444 0.0009130197 0.0012025007 -0.00057822332 0.0013953936 -0.0016027427 0.0012386431 -0.0014843225 -0.00040018265 -0.0016975139 -0.00049309037 0.00043563903 -0.00013110563 0.0011910609 -0.0009300739 -0.00072971324 0.0013611785 -0.0014791077 -0.0012521468 0.0010901544 -0.0011580198 0.00014758931 0.0012678781 -0.0016833948 3.0512963e-05 0.0014175611 0.00023543074 0.0013883861 -0.00032126345 -0.0014619735 0.00018838416 -0.00015820701 -0.00033655667 0.0016084492 0.00056793366 -0.0002038137 -0.00085068826 0.00021200963 0.0013296052 0.00069728278 -0.00085072598 -0.00052777986 0.0014726376 -0.00062087207 0.0014167726 0.00028561222 -0.00027366061 0.00038646822 -0.00089902402 -0.00083864952 0.0013675673 0.0016105943 0.0013895036 0.00074419309 -0.0012421837 0.00066970033 0.0013402479 0.00065646169 -6.0956168e-05 0.0016743597 -0.0016233727 -0.00053991342 0.00092459616 -0.0016065132 0.00098788389 -0.00069780624 -0.00036231609 -0.00021115481 0.0005825531 -0.0009383962 -0.00043830444 -0.00061753945 -0.0015812631
john 0.00067284727 0.0013001217 -0.001494182 0.00089907617 0.00062174402 -0.00099078519 -0.00090592977 0.0010249009 0.0013097426 -0.0014584127 6.4140327e-06 0.00012100592 0.0015853663 -0.00093956775 0.001444496 0.00028932909 0.00052321295 0.00067483349 -0.0001983259 0.000287378 -0.0013469997 0.00076420821 0.00073386834 -0.00063586188 0.00113903 -0.0005034731 -0.0013569094 -0.00021683473 0.0010987769 0.00073723652 0.0010731283 5.5759815e-06 0.00092782674 -8.470779e-05 0.0015580457 -0.0011719664 0.00048724643 0.000890959 0.0012677717 -0.0012895906 -0.00049176702 -0.0014324887 0.00016772421 0.0011045353 -0.0009594211 0.00084357179 -0.001240706 0.00074705092 0.0012691595 -0.00022408344 0.00089102052 -0.0012334363 -0.0010984538 0.00024484526 -0.00020312709 0.00092360249 -0.00060669711 0.001371079 -0.00047446325 0.0015403255 0.0013178181 0.0015870099 -0.0012066695 0.0012329558 0.0007483185 -0.00091295072 -0.00048991246 -0.0008387753 -0.00098301342 0.0013450882 -0.0006066254 -0.00039133994 0.00023066626 0.00030419661 0.00040056632 -0.000837853 -0.00038412862 0.0011301377 -0.00020320342 0.00074914494 -0.00011113309 -0.0012134186 0.0012277025 -0.00017290925 0.0015899424 -0.0008807375 3.7191512e-05 0.00033915215 0.00068269507 -0.00047791726 0.0012794047 -0.00071883207 -0.0015166847 -4.5563094e-05 -0.0013919559 -0.00041089355 0.0011368503 -0.0014219265 -0.00016057378 -3.3910303e-05 0.001519003 -0.0012885543 -0.00091833511 -0.00075938477 0.00038528914 -0.0005184047 0.0011004915 -0.00098328711 0.0006402263 -0.0008449945 -9.5383526e-05 -0.00045624742 0.00011931006 0.0006134822 -0.0013570237 -0.00075466663 -0.0013596698 0.0009817481 0.00055229472 -0.0016383859 -0.0013496402 -0.00061012764 -0.0013486192 0.0010968911 7.9465783e-05 7.9368379e-05 -0.00082037901 -0.0014960903 0.00079090905 0.0011137329 0.00029500326 -0.00024636142 -0.0001603386 -0.00029935065 0.0012586097 -0.00049950229 -0.00089395256 -0.00044136745 0.0011527869 -0.0012724366 -0.00072206691 0.00079740491 0.00076053647 0.00015400267 -0.0012644298 0.00021026566 0.00076772552 0.00089196803 -0.00089170749 -0.0011972857 -0.00057224941 -0.0011195269 0.00031418292 -0.00074649148 0.00069751969 -0.00036861535 0.0016410002 -0.00077016035 -0.0017246677 -0.00064450898 -0.0011545399 0.0013180373 -0.00084291847 0.0010115134 -0.0010696679 0.0011398382 -0.00016168515 -0.0012683246 -0.00091865874 0.00087501033 0.0016089218 -0.00087463926 0.0011426245 -0.00043045491 -0.00083879801 -0.00039763027 -0.0015978952 0.0011246735 -0.0007133403 -0.00053173909 0.00047030349 -0.00017104617 0.00044164865 0.0013969736 0.00085554068 0.00085150549 -0.00076184853 -0.0015569292 0.00018159793 -0.0017520541 -0.0011263527 -0.0011986734 0.0012884138 0.00097384746 0.0010912503 -0.000875792 0.0015094418 0.00068412913 0.0015762188 -0.0012056626 -0.00096366374 -0.0013256357 0.0011166304 -0.0015126634 -0.0013190181 0.00036419809 -0.0015183878 0.00077913265 -0.00058904738 -0.0010745728 -0.00051204301 -0.00057696278 -0.00075982558 -0.00083234702 0.00085818616 -3.5288856e-05 0.0015693512 0.00069979619 -0.0014548894 -0.00093108125 0.0011675816 0.0016170383 -0.00020102678 -0.001492279 -0.0013727437 -0.00039355087 -0.00139499 -0.0011386188 0.00035278729 0.0015174367 0.0012068679 0.0010611308 -0.00076710532 -0.0015574323 -0.00041323871 -0.00015690475 -0.00097326672 0.0013507954 -0.00036957144 0.00045885172 0.00098488422 -0.00047160624 0.00046589682 0.00066029833 -0.0001993748 -0.0012884537 0.0013090491 -0.00069318811 -0.00036511931 0.00065419904 -9.8286037e-05 0.0012214379 0.00086678052 -0.00036687922 -0.00061814737 0.00018049966 -0.0015883868 0.00125734 -0.001425709 4.8920734e-05 -0.00019291972 0.0016026943 0.0009800914 -0.00094890792 0.0014273295 0.0014714869 0.001509101 0.00085631973 -0.00011938304 0.00066025928 5.1573559e-05 0.00031077821 -0.00024063225 0.00070563919 -0.00020542629 0.0015180886 0.00063514395 0.0015392891 -0.00053902838 -0.00060810614 0.00080379349 0.00047973817 0.00060786388 0.00085351116 -0.00054729998 -0.001591054 -0.0010790006 -0.0012962528 0.00068492448 0.0016539381 -0.0013455129 -0.00097561633 0.0012572486 -0.00033381925 0.00048786178 0.001075285 0.0013611641 0.00064527342 0.0010315184 -0.0013777543
blair 0.0011695826 -9.5328563e-05 0.0013241927 -0.00063886296 0.00028719526 0.0010236098 3.146943e-05 0.0010194444 0.00015593796 0.00026186893 0.00046334925 0.0015359817 -3.0817203e-06 -0.0010003168 -0.0011406298 -0.00051596732 3.3638109e-05 0.0012666992 -0.0015139898 -0.0011780809 0.00015103619 0.0010358279 9.3749855e-05 0.0011230669 0.00089708361 0.0015331181 -0.00043401017 -0.0013591852 -0.0013594364 -0.0013275173 -0.0012975332 0.0016135698 0.0015106896 -0.00019785891 -0.00047263503 -0.00079052761 -0.00073364767 0.00060900906 -0.0015137023 -0.0013426014 0.0013753852 -0.00014695276 0.0013373615 0.0014265097 0.00084323029 0.001165729 0.00060917949 -0.00036239406 1.3235972e-05 0.001419318 -0.0012405455 0.0015147657 -0.0011942678 -0.00054483378 0.0011188647 -0.0014465601 -0.0012884077 -0.0013107811 0.0015986301 -0.00088167691 0.00019107391 0.00023156169 0.0014136605 0.0015130888 -0.0010671718 -0.0010821446 -6.6721179e-05 -0.0012277307 0.001537029 -0.001335541 2.9845207e-05 7.9813435e-05 0.00034164806 0.00063973881 -0.00050126598 -0.001417467 0.00084228494 0.0011882283 -0.0012976751 0.00044319016 0.0015420786 0.0016902979 0.00079479319 -0.00015163753 0.0012044703 0.0012503024 -0.00049483369 0.0015446901 0.0014962855 0.00038607788 0.00094952015 -0.00014238858 -8.4008236e-05 -0.00085025834 -0.00018205734 0.00043146301 -0.00049108674 1.5313411e-05 -0.00091088936 -0.0015584865 0.00024233287 -0.0012920637 -0.00084658881 -0.0006135719 9.3471135e-05 0.0012167929 0.00063653284 0.00055962731 0.00051081809 -0.00087138696 -0.0009654059 0.0014593916 -0.00020265441 -0.00048435485 0.00076491607 0.0007408972 0.0012041405 0.00080205622 -0.00084026909 0.0012870325 6.8032445e-05 -0.00093032554 -0.001665339 0.00080345315 0.0011352354 -0.0009042811 -0.0015073783 0.0013491509 0.00021977627 -0.00025908989 0.0012584174 0.0002669222 -0.00047064928 0.00022834877 0.00082998461 0.001046793 0.0017760048 0.0011816724 0.00070309016 -0.00051734038 0.001419667 0.00055766996 0.0015704408 0.00085070427 0.00093341828 0.00045184081 -0.0016818327 0.0010362694 0.00087099336 -0.0013750583 0.0014238016 0.00020268634 0.00071321311 -0.00035699242 -0.00098070398 -0.001235688 0.00048267926 0.00024631096 -0.00021271674 -0.001059328 0.00034424674 0.0006188004 -0.00019583738 0.0013726532 -0.0016149157 0.0013188377 0.0011981931 0.0015121837 0.0010606153 -0.00035157229 -0.00020965445 0.0009836884 -8.9068722e-05 0.0010007933 0.000400519 -0.00087026029 -0.0011169015 -0.001663662 0.00043005878 9.0230162e-05 0.0013674584 0.0004432617 -0.0010541466 0.00092927291 -0.0014394738 -4.291016e-06 0.0015116327 0.0012132821 -0.0014011444 -0.000675202 -0.00131047 0.0014599006 -0.0012555671 0.0010520825 -0.00015344672 0.0014095864 0.0004670838 -0.00067069242 -0.00049706147 0.00060649397 0.0016321253 0.0017230666 -0.00055727392 -0.00028236129 0.00057833054 -0.0014019221 0.0007379672 -0.0014732998 -0.0016283821 0.0013448213 -0.00077920902 -6.9349735e-05 9.9108329e-05 0.0016057002 -0.00066161394 0.00017816837 -0.00050854171 0.001580984 -0.00051387044 -0.0012951737 -0.0012057904 0.0017746163 -0.00068782514 0.0013245404 0.00061416975 0.00044674831 0.0004619564 2.1607455e-05 0.0011399742 -0.0012436573 0.00086589251 0.00014804024 0.0012533946 0.0012780069 0.00063564599 -0.0012649874 -3.9840401e-05 -0.00085810304 0.00019212547 -0.0014567008 0.0017135333 0.0015830763 0.0015410897 0.0014425475 -0.00033672879 -0.0012727201 -0.00052132516 -0.0011117897 0.00092390197 -0.0013671662 -0.00023502714 0.0012770422 -0.00085531716 0.00057014363 0.0013121403 -0.00018186108 0.00016466573 0.00059296767 0.00085372833 -0.00035462331 -0.00087910163 8.6126136e-05 0.00031590913 0.00010062885 0.0010064057 3.3588705e-05 -0.001278425 -0.0010362982 -0.00040752016 -0.00038817432 0.00052968267 -0.0002347081 -0.0003041923 0.00041849207 0.00095677137 -0.00060415745 -0.0010873278 0.00059262203 -0.00046673691 -0.00074855355 -0.0012916526 -0.0013777784 -0.0010408624 -0.0010173841 -0.00039913956 -0.0016771107 0.001422521 -2.5270949e-06 0.00030684401 -0.0013654042 -0.0010829166 0.00040634724 0.00016645463 -0.00035604971 -0.00076111755 0.0010854265 0.0012057783 -0.00021051372 0.0011301511 -0.0011994189
s 0.00017562036 0.0009984487 -0.00041935773 -0.0013342687 -0.0016185688 -0.00061119825 -0.00036977881 0.0013560612 0.00071219372 0.000500097 0.00086117233 0.0010728415 0.00083694473 5.6744862e-05 -0.0013906168 0.00074290938 0.0011035061 -0.00049961999 -0.00052449631 -0.0014755364 0.00062183087 -0.00068286771 0.0015796361 -0.0016253488 0.0013236211 -0.0010830525 -0.0013185871 0.00069862226 -0.00050744932 0.00015209224 0.00027334649 -0.0014311286 0.00059400534 0.0016229434 -0.0002499285 -0.0011084451 -0.0014499484 0.00032163149 0.00069703575 -0.00019823854 0.0015108651 -0.00092015939 0.0001269382 0.0014570705 -4.9850907e-05 -0.00069262017 -0.00017761019 0.0014374533 -0.0014465277 -0.0011280542 -0.0001725325 -0.0003908127 0.0011375615 -5.2783085e-05 0.0012027776 0.0011404429 0.00023488757 -0.0014341082 0.0010155754 2.6660791e-05 -0.0017150685 0.0014491102 0.0011799472 0.00055881398 0.00015486413 -0.0013882981 0.00019030334 0.001564984 0.0015235536 0.000687411 0.00031995715 0.0012157393 0.0014999675 -0.00055815006 0.00039113837 0.00051998178 -0.0015320182 0.0010991256 0.00057330303 0.0016675721 6.668795e-05 -0.00075395615 0.0012083736 -1.7658793e-05 0.00024793661 0.00095783849 0.0015467064 -0.0014142249 7.6129974e-05 -0.0016892474 -0.00041100878 0.00042230138 -0.00014091616 0.00088338775 0.00077487651 0.00079904817 0.00088640314 -0.00031517111 -0.00048228033 0.00089420471 -0.0013555345 -0.00075908226 -0.00062921928 -0.00071924826 -0.0013631509 -0.00067166612 0.00080781209 0.0014228665 -0.00054254197 -0.00094675098 0.001325201 6.4001935e-05 0.0010498894 -0.0012099679 -0.00044089241 0.00087648397 0.0015357448 -0.00065893901 -0.00027257309 0.00079778139 0.0014286537 0.00088811392 -0.00094837346 0.00016726964 7.2542738e-05 0.0014061922 -0.00023720019 6.3737039e-05 0.0014110222 -0.00014803564 -0.00091369991 0.001693057 -0.0010447442 -0.00038047339 -0.0015648941 -0.00035151161 -0.00073914253 0.0014132549 -0.0004131473 8.7606066e-05 -0.00020569221 -0.0005733805 0.00049357745 -0.00094500103 0.00048227017 0.00013504821 -0.0011011325 0.0013497398 -0.001074358 0.0014577152 0.0006119571 3.6248257e-05 0.0013254071 -0.00019121275 0.00022982119 -0.0002454021 -0.0014730585 0.0011356843 -0.0012865781 -0.0013855757 0.00040879607 0.0002664779 0.00013021562 -0.0012230797 0.0011834503 0.00033374954 -0.00059564377 9.0961017e-05 0.00013899445 -0.00065116794 0.00099155121 -0.0010736259 -0.0008146998 -0.00043636063 0.001451719 -0.0010464456 -0.0015744291 -0.00011851338 -0.00059079321 -0.0015934849 -0.000227076 -0.0010199463 -0.0012176031 -0.0012781434 0.00036234717 0.00027676165 0.0013437126 0.0015037498 -5.9336358e-05 -0.0016473163 -0.00072997285 -0.00012220356 0.0001838366 -0.00055799709 7.7966586e-05 -0.00011303464 -0.0013147469 0.0017165013 -0.00019867891 -0.00082200108 -0.0014998473 0.0011271646 -0.00062196952 0.0010039954 -0.0014883919 0.0011446152 -0.0016203299 0.00057119009 -0.0013889323 -0.00018766684 0.00037239739 -0.00051492627 -0.00017745416 -0.00072269881 -0.0014215187 -0.0013536646 -0.00077435008 -0.0010711048 0.00027921351 -0.0011126996 -0.00058146031 -0.0014684882 -0.00041113026 0.0014278378 0.00012990444 -0.0007095699 0.00086013851 -0.0016142661 0.00080093037 -4.5028246e-06 0.00027285604 0.00093225436 -0.0013040451 -0.0014231072 -0.0010049285 0.00030067339 -0.00061463978 -2.0560253e-07 0.0016684977 -0.0009288353 -2.8119854e-05 -0.0012944822 -0.0015312481 0.00028040132 0.00076554331 -0.00088139798 -0.000165148 0.00055502128 0.00046515875 0.00046734183 0.00026122574 0.0011135731 -0.00090601994 -0.0014564949 0.00098781497 0.00013599455 -0.00070862024 0.00021847359 0.00060076313 -0.00019176686 0.0010058604 -0.0012957965 -0.0016529527 -0.0016859933 0.00051925587 0.0012976915 0.00041291033 0.00040515934 -0.0012769597 -0.00030862633 -0.00093864696 -0.00075913378 0.0015625069 0.0011476576 -0.0007358705 -0.00043805822 0.0004977939 0.0013539167 -0.0014784319 0.00043129973 -6.3268802e-05 -0.00092808629 0.0013218239 -0.0005302768 0.0016846698 0.00093450781 0.0016392379 -0.00078363821 -0.00025356837 0.00096064637 0.00024342003 -0.00070094113 -0.00077790412 0.00013342583 -0.00059129851 0.00015455834 0.0010199619 0.0010703783 0.00068684237 -0.0014395762
services 6.7808433e-05 0.00045084837 0.00091707718 0.0014477463 -0.00088796724 0.00042597309 -0.00081155892 -0.0011532522 0.001091082 0.00049378473 -0.00084971596 0.00059672067 -0.00094188313 0.00063791033 0.00075382466 0.0011247955 0.00097656425 0.00070586969 -0.00016403807 0.00096620328 0.00042139422 0.00016630687 0.0012235346 0.00028151175 -0.0013312998 -0.0010304792 0.00067356561 0.001255928 0.00069242087 0.00047170595 0.00058625004 -0.0012626053 0.0015997258 -0.0012399316 -0.00044510321 -0.00052784203 -0.0012142863 -0.00074195914 -0.00054672145 0.00101169 0.00040065934 0.0012520987 0.0012571531 -0.00049118407 0.0014825581 -0.00050561776 -0.0015644012 -0.0016334117 0.00010496027 0.00045275694 -0.0011998712 0.0013717827 0.00053962739 0.0010060312 -0.00018335476 -4.4871863e-06 0.00025223862 -0.0014701294 0.0016731553 -0.0016050792 -0.00058391347 -6.663784e-05 3.3158736e-05 -0.00096123834 -0.00034361667 -0.00094084564 -4.2247011e-05 0.0012903537 0.0012867254 -0.00078833784 0.00067213015 6.6127053e-05 -0.001602012 4.5620603e-05 -0.0015735487 -0.0010756633 0.00016442813 -0.0010646655 0.00052915746 0.00035948379 1.6485577e-05 0.00076016271 0.00083144818 3.7379501e-05 0.00025284829 -0.00032768861 0.0010088871 0.00026697604 0.0012150471 0.00061785732 -0.00056315371 -0.00060028752 0.00053043076 -0.00011671712 -0.0014400644 0.0009927121 0.00014106972 0.00015066587 0.0015042977 0.00058355252 0.00063654809 -9.7367047e-05 0.00068357703 -0.00068989873 -0.00087973487 0.0012557638 -0.00038804332 -0.00067970052 2.2391346e-06 -0.001120628 -0.00044307904 0.0012752324 0.0013034339 -0.0010617228 -0.0015150071 0.0010127482 0.0015067488 -0.0012466863 -0.00046766037 -0.00022475349 -0.001091264 0.00045735459 -0.00075055123 0.0013493093 -0.00042329472 -0.00039691906 -0.00094440929 -0.00017192116 -0.0015202755 0.00021278491 -0.0012394845 0.00079030887 0.0010188331 0.0003459343 0.0011058381 -0.0013150424 -3.6891379e-05 -0.00022590197 0.00023712451 -0.00063782826 -0.0014089 -0.00051729497 -0.00015811712 0.00069888419 0.00028663463 -0.00053578964 -0.0014714143 -0.00049551722 0.00026570528 0.0011987122 -0.0013057818 0.0010786756 0.0015618735 -0.00069222524 -0.00066364522 0.0011528106 0.00097328227 0.00034653457 -0.0015615248 0.00071089627 -0.00014636714 -0.00072967488 0.00087824126 0.0016074933 -0.0005346887 0.000719629 -0.00023385715 -2.7644008e-05 -0.00078008563 0.00065474922 -0.00056110526 0.00025477001 0.0012412962 0.0014186329 0.00082705257 -0.00034926602 -0.0004135592 0.00034128624 -0.0013036433 0.00096598029 -0.0011559204 0.00068310124 0.00075759785 -0.0003411845 -0.00097111077 0.0011958815 0.00088471995 0.0016618147 -0.00067240355 -0.00081158458 -0.00036177278 -0.0013512194 -0.00010625916 -0.00012704474 0.000852987 0.0013860833 0.0010726455 0.0013599693 0.0010430176 0.00038876341 -0.0014391796 0.00094853673 0.0016433164 -0.00097760954 0.00056352024 -0.00032427622 -0.0011806844 -0.00081358448 -0.00036462178 -0.001478147 1.0773606e-05 0.0014736201 0.00019195366 -0.00099134201 0.0013759028 0.00065507751 -0.001039788 0.0011300084 -0.0014967109 -0.0009178188 -0.0014640652 0.0016839911 0.00061413174 -0.0010239044 0.0011631695 -0.00060958078 -0.0010155835 0.00066858355 -0.00010758505 0.0012877907 0.00066472235 -0.00063437718 0.00051157043 -0.00073525781 -0.00020407456 -0.00053271168 -0.00069439574 0.00058059691 0.0017105996 -0.00031070143 0.0007251646 0.001252659 -0.00072816567 0.00025690079 -0.0012016412 0.00098441017 -0.0011775632 -0.00079114124 -0.00074507593 0.000780312 -0.00081777241 0.0013858582 -0.00044470109 0.00038998493 -0.0015704656 0.0013121032 0.0016271711 0.0011546756 0.00043549613 -0.0013468107 5.5641223e-05 0.0016870884 0.0010733845 0.00027763846 0.00010161777 -0.00026739287 0.0013323455 0.0012453666 0.00049028965 -0.0001914508 3.3895467e-05 0.0012259529 -0.00088277622 -0.00084842963 0.00063891517 0.00086757838 -0.0013950632 0.00097315037 0.0001851225 -0.0014159452 0.00080233288 0.0010156166 0.00049548579 0.0009128229 -0.0011547693 0.0013972976 0.00049276074 -0.0015564362 0.00053273828 -0.00029037951 -0.00033703903 -0.00020451764 -0.00016542408 0.00031821165 -0.0015787495 0.001564549 -0.0012185198 0.00012777589 0.0013147896 0.00087656867
will -0.00064699416 0.00097578124 0.00055794185 0.00019817075 0.00045886857 -0.00057084876 0.00091501337 0.00011800293 -0.00056113466 0.0010113389 0.00047664531 2.1845683e-05 -0.0003020615 -0.0010754213 -0.00089489715 0.00013104042 -0.0012331496 0.0015708591 0.00075983332 -0.00067970285 0.00053608324 0.0017228101 0.0010619086 -0.00094422197 -2.8204648e-05 -0.00039180747 -0.00075822265 0.00085738319 0.00020843653 0.00037153598 -0.0016698189 0.00072524481 0.0014831397 0.00087916758 -3.7764814e-05 0.00056258234 -0.00051445555 -0.0011314204 0.0015013333 -0.00014681606 0.00032787095 -0.00030269014 -0.0011056832 -0.0013262453 -0.0015419417 0.00084389112 0.00094682712 0.0002611345 0.0015775394 0.00052048475 0.0012052486 0.0010996115 -0.0010651435 0.00070213358 -0.00092405675 0.0014429858 0.00037818705 -0.00098228373 -0.00055621087 0.0016827252 0.00099969946 0.00020133058 -0.0011407216 -0.00043579075 0.00059209269 -0.0006402579 -0.00064203964 -0.00085211726 0.0010278458 7.3795018e-05 0.00068854151 -0.0015699108 0.0012323445 -0.00095558818 -0.0011878643 0.001061387 -0.0010670223 0.00026742721 0.00064789859 0.00066095137 -0.0008003891 -0.0014178589 -0.00015007098 0.00027463649 0.0001297752 -0.00039965738 0.00076208398 -0.00042610784 0.0013170519 -0.0014193257 -0.00037820611 0.0004253214 0.0013812806 -0.00038095063 0.0011618565 0.0011170454 -0.0013401229 0.0008664495 0.0011478489 0.0011263668 0.00033842406 -0.0012562926 0.0015926209 -0.0015269795 -0.00074764586 0.0016388583 0.00032991229 -0.001443356 -0.00072170584 0.00095525611 -0.00062176294 -0.00065897848 -8.7129774e-05 -0.00088949525 -0.00040382342 -0.00095141749 0.00040454863 -0.00093390595 -0.0010724186 0.0015306718 0.0011399628 -0.0006589797 -0.00077078305 0.00047181724 -0.0013506868 0.00019976812 0.0015374124 0.00021206609 0.00071793463 -0.00052569981 0.0010219752 -0.00057567045 -0.0009945872 -0.00055587501 -0.00051982369 0.00055923138 -0.00050457928 -0.0013824176 -0.0006002204 0.0014623752 -0.00069809251 0.00093085645 0.0016797924 0.001193393 0.00039273885 -0.001322738 0.00022576336 -0.0011942954 -0.0012512335 0.00035568283 -0.0013762652 0.00049856154 -8.2475934e-05 -0.00096838921 -0.0015924872 7.5625976e-05 -0.00085649465 0.0015082568 0.0002796138 -0.0010111016 0.0012959591 -0.00060680386 0.00068666198 0.0011620965 -0.0011263324 0.001547717 0.00060189021 0.00056296546 0.00065221696 0.0011682446 0.00045339193 -0.0010862796 -0.0005397576 -0.00010477402 -8.302027e-05 0.00089142035 -0.00063643471 0.0011476513 -0.00072159211 -0.00017140103 -0.0015063918 0.0012376083 0.00019674859 0.0015409542 6.1810177e-05 -0.00019691497 -0.0014578913 -0.0012250021 0.0011213268 -0.0010105001 -0.00016683854 0.0010062348 -0.0011165293 -0.00041580154 -0.0011037104 0.0001207743 -0.00018519261 -4.4819277e-05 0.00019696825 -0.00098349887 -0.0011554649 -0.0015372225 -0.0016121861 0.00041656234 -0.00038059917 -0.00019192204 0.00061001646 0.00035500381 -0.0011208198 -0.00013832883 -0.0013380101 -0.0011539422 0.00062402268 -0.0010429969 0.0014453225 -2.5044465e-05 0.00052145735 -0.00087584549 0.0003166059 0.0015503832 0.0012705645 -0.0013736846 -0.0010198656 -0.00051398232 0.0014327954 0.00025765694 -0.0012259709 0.00078992348 -0.0015792839 9.4420284e-05 -0.00058318611 -0.0012619678 0.00013232381 0.00064791064 -0.0012688976 0.00056942622 -0.00057527574 0.0010292459 -1.4140717e-05 0.0012321416 0.0013105702 -0.00027073268 -0.00068050571 5.1275743e-05 0.00065462693 0.00036057521 -0.00043505296 -0.0018169214 0.0012995885 0.00065291434 0.00098067056 0.00075966958 -0.00083503017 0.0013544323 -0.00035491562 0.00042333888 0.00078478485 -0.0010795357 0.0011610892 0.0013695657 0.0014439666 0.00054239872 0.0009219799 -0.00036320163 -0.0012858539 -0.00081202219 0.00159902 -0.00067620142 -5.8390674e-06 -0.0013271375 -0.00043353587 -0.0015372232 0.0006922388 -0.00023003566 -0.0010191525 -0.00041156565 0.0010882941 0.0013612082 -0.00021221804 0.00019920021 0.00013090728 -0.00033691514 -0.00032796717 0.00014299485 -0.00021994014 0.00021975681 0.00067523704 -0.001034294 0.0010487406 -0.0015474114 -0.0016804555 0.00070287893 0.00076594955 0.0012964483 -0.00033936527 0.00074553001 -0.0010036775 -0.00030028369 5.0608527e-05 0.00027261826
boeing -0.00019750885 0.0012804539 -0.0014556488 0.0013140553 -0.00074921729 -0.00096870464 0.0013683225 4.101605e-05 -0.00046019108 0.0010262069 4.9616687e-05 -0.00028701179 2.0459298e-05 -0.0016672777 -0.00034985945 0.0001617727 0.00098178966 0.0003376797 -0.00089434802 0.0006011345 0.0011504745 -0.000349015 -0.00015865771 -0.0014914712 0.0012577473 -0.0012779599 -0.001563494 -0.00034884043 -0.00097408128 -0.0003020693 0.00063095597 -0.0015453546 0.0009519381 0.00096010708 0.0016632891 -0.00094325951 0.00083633518 0.00033027882 -0.0017233111 -0.00067970599 0.0015942327 0.0013378862 -0.0013591094 -0.00052615954 0.00052582799 0.00051230151 -0.0015596038 0.00012950282 0.00083913584 0.00072102528 0.00024316815 -0.00070396287 0.00086292723 -2.1229702e-05 -0.0014480159 0.0015534676 0.00053898484 0.0016324812 0.00048960716 0.001281444 0.0010278695 -0.00061193953 -0.0014532682 3.5418019e-05 0.00014581921 4.8039416e-05 0.0001703812 -0.0010155004 -0.0014748221 -0.00079142343 -0.0014102319 0.0015016145 0.0010876522 5.6616827e-05 -0.00011453941 0.0016954992 0.00026098223 0.00090415223 -0.0014327983 0.0015511244 -0.00075469672 5.4984608e-05 0.00081829011 -0.001040749 -0.0014337811 0.0003755216 -5.3726766e-05 -0.0010382853 -0.00035932747 -0.0016133428 0.0013663883 0.00052791677 -0.00050874398 -0.00084719126 0.00080656394 -0.00046110561 0.0016039974 -0.001416643 -0.0013069654 0.00075050344 0.00059987378 -0.00025871579 -0.0010422249 -0.00064439449 -0.0015956452 0.001650157 -0.0015549279 0.0013958622 -0.00045743384 -0.00010312764 -0.0016966341 0.0012569261 0.0015151525 -0.0012722412 0.0016565883 0.0014237819 -0.0011470671 0.0013607616 -0.0006918555 -0.00075556705 -0.0012917708 0.0013253175 0.00073007366 0.00077909039 -0.00016101358 0.00086576922 0.00039198392 -5.1723247e-05 0.0014510343 0.00024573089 -0.0012364554 -0.0010448724 0.00048576033 0.0005123936 0.0011571436 -0.00090616255 -0.00052855181 -0.00058119971 -0.0004581562 0.00017656304 0.0010581411 -0.0014760649 0.0012115912 0.0016117556 0.00036685608 -0.0016366927 0.00039470237 0.0012246122 0.0001511579 0.00087010826 -0.00046213495 0.0015503482 -0.00035409996 0.0011241679 -0.0013965413 -0.0013846719 0.00086603168 0.0016433136 -0.001518864 0.00026228247 -0.0014971886 -0.00010367686 -0.00050742639 0.0016712777 -0.0013765813 -0.0011271742 -0.00054382143 -4.362807e-06 -0.00054179732 -0.0010057773 -0.00067702885 0.00047304278 -0.00067128835 0.00067790475 -0.0002602961 0.00027312964 -0.0012739737 -0.00063929573 -0.00051274162 9.0303984e-05 -0.00036129364 0.00071584911 0.00089073571 -0.00059021491 0.00051866076 -0.00076238724 -0.00097406824 -0.00082327612 -0.0011237648 -0.00026165013 0.00020746789 0.00094474375 0.0002596183 2.4216162e-05 -0.00034504468 -0.00090644945 0.00098212808 -0.00020882813 -0.00024212131 0.0017075477 0.0011003773 -0.0005743113 -0.0012141418 -0.00062479742 0.0010252015 0.001435434 -0.00023563755 -0.001345321 0.0011143275 -0.0006717486 -0.00056841079 0.00057657465 -0.0013388428 0.0014089041 0.00056213886 -0.00085246179 -0.00078020751 -0.0014451508 0.0015370876 0.00071530615 0.00072764227 -9.3574025e-05 0.00033883977 0.0015514126 -0.0014531211 -0.0005732401 -0.0014895163 0.00047088676 0.0010151091 0.0014367395 -0.0010722852 -0.0013088607 -0.0016955447 0.0013408513 0.0014640702 -0.00059606542 -0.00066469231 -0.00032558772 9.1588256e-05 -0.00069378963 -0.00076564512 -0.0015029702 -0.0012926236 0.00063890801 -0.00021416918 0.00052760495 -0.0010433578 0.0010750869 -0.00014934356 0.00083155313 6.7644018e-05 0.00080909044 0.00042448557 -0.0015905075 0.00062322232 0.001532545 0.00073936902 -0.0012349269 -0.00022035374 -0.00090899592 -0.00070499495 -0.00014556639 -0.0011176188 0.0009944333 0.00018941845 0.0011427025 0.00048705001 -0.0011762261 -0.0014631615 -0.0015393777 -0.0001945299 0.0013729212 -0.00039472352 0.00016123155 -0.0013535672 -0.00017012378 0.00095841981 -0.00046249764 -0.0007576971 -0.001458707 -0.00097265467 -0.00076615543 -0.00043518658 0.0015886931 -0.0015059864 -8.5835658e-05 0.0011717265 -0.00066850299 0.001471809 0.00062256696 0.00081907772 0.00098625466 0.0010005218 -0.00077181606 0.0010738759 -0.00033030592 -0.0013221549 0.0012011238 0.0013791926 0.00022610625
an 0.0016716865 0.00070645998 0.001476554 -0.00077758078 -0.0014091328 0.0014879596 -0.00030994904 -0.00048740665 -0.0015250253 -0.0010202405 -0.0015551713 -0.0015695022 0.0008671814 0.0015148753 2.5216792e-07 -0.00022597329 0.00055935903 -0.00059181103 0.0015892108 -0.0016933791 -0.00055096566 0.00084395398 -0.00013824308 -0.0013803439 0.0011875305 -0.0014221695 -0.00076435675 0.0012175615 -9.3662922e-05 -0.00098976819 0.0012178068 0.001302641 -6.2526291e-05 0.0013075342 -0.00054860691 0.00067776017 0.0014585723 -0.00051423162 8.1089065e-06 -0.0010672244 -0.00012520859 0.0011707167 0.0014293919 0.00059964665 -0.00076670898 0.00097042293 -0.00098733639 0.00013931526 -8.2316801e-05 0.0010236413 0.0013464626 -0.00057728571 1.5642468e-05 0.0011487829 -0.00067061721 -0.00048394495 0.0011887939 -0.0014846565 0.00040681008 -0.0011617898 -0.00015741707 0.0015147298 -0.0014972666 -0.0015423282 0.00075914914 -0.00030246688 0.0011752206 0.00055411534 -0.0008090561 0.00084720133 -0.0003783303 -0.00057301094 0.00093205884 -0.00093024445 -0.0016309952 0.00020572609 -0.0010971591 -8.9613568e-05 -0.00019011312 -0.00074217422 0.00051326718 0.00040586502 -0.00052374683 0.0010668403 0.0011824716 0.0010491244 0.0012792854 -0.00090202206 0.00097632332 0.00086110848 -0.00035511222 0.00035348564 5.6794361e-05 0.0011353539 0.00034141092 -0.0012791122 -0.00033283359 -0.0010789502 -0.0001100211 0.0010117656 -0.0011904561 -0.00080335786 -0.0013780072 -0.0008221055 -0.0014517828 0.0010008219 0.00030531464 -0.00066447206 -0.0001161699 0.0013363931 -0.0015299348 -0.00021134391 0.0004298352 0.0003392795 -0.00016242375 -0.00052299269 -0.0007289676 -0.00043559101 0.00018022435 0.0014760735 0.00023381993 0.001577286 -0.0014539174 0.0016711343 0.0010597893 -0.00095849269 0.00048028273 -0.00071567338 0.00087649445 0.00092678069 0.00029507163 -0.00029793111 0.0014563862 0.0005160392 9.3689952e-05 9.1830931e-05 0.0016453644 -0.001455961 0.00042328949 -0.00026167472 -0.0013759742 0.00094032427 -0.0014688051 0.00098151295 -0.00085114694 0.0011212646 7.9556085e-05 -0.00017779268 -0.00061240239 0.00095108117 -5.7193211e-05 -0.00019318059 0.00085551885 -0.00036707008 -0.0014236945 0.00024475652 -0.0012277771 0.0016617009 -0.0017350719 -0.0003148627 0.0014368786 -0.0008828225 -0.0009886917 0.00012662714 -0.00088626012 0.0010789182 0.0011147462 -0.0016924531 0.00030409158 -0.00020791865 0.0016092643 0.0008635046 -0.00055778702 0.0011046734 -0.001474837 0.00083671976 -0.0014036124 -0.0012705126 -0.0012620771 0.0011267072 0.00044584353 -5.0565155e-05 -0.0005195936 0.00020992104 -6.2157887e-05 -0.0015758933 0.0001479979 0.00037903996 0.0004152066 -0.0017326906 1.8848315e-05 0.0010033137 -0.00048608342 -0.0007822942 -0.00069014792 -0.0011207882 0.00045947192 0.00037757118 5.6811979e-05 -0.00041169726 -0.0012590593 0.0013168587 0.00089404703 0.00054063287 -0.0011522778 -0.00060864619 -0.00014031297 -4.5540484e-05 0.00056642317 0.0014964801 0.0006097983 -0.0014474243 0.00029182524 -0.001517596 0.0015424251 -0.00050307135 -0.00025655725 -0.00072967436 -0.00092769496 0.00066974032 0.0017009262 0.00044568919 -0.001780432 4.4041983e-05 -0.001081273 0.00097394921 -0.00010584475 -0.00034476109 -0.00079360453 -7.3810443e-06 -0.00065445167 -0.0015099139 0.0001881248 -0.00039130374 1.2350199e-06 0.00077324879 0.00024532861 0.0012475871 0.00099778397 0.00080205372 -0.00011513234 0.0012446579 0.00026573724 0.001314717 -0.0011869195 -0.00030335621 -0.0015234565 9.5084288e-05 -0.001043704 -0.00145965 0.00015832725 0.00095004769 -0.0013422818 0.00015370354 -0.0012489202 -0.0013331525 0.0012614493 -0.00041543777 -0.0015294311 0.00079908321 -0.00080854038 -0.0008947482 -0.00012726041 -0.00033120869 0.00015832613 -0.00011335202 -0.00019328311 0.00057757425 -0.0003153685 0.00095394405 0.0012944568 0.00091689918 -0.00037860809 -0.0010368278 -0.00056901074 4.5839588e-05 0.00047679266 0.00031938253 0.00098903489 0.0004390878 0.00065597834 -0.00036889588 -0.00076217734 0.00044417632 -0.001397733 0.00058014406 0.0010922295 0.00078335725 0.0015238292 0.00026546384 0.00082302408 0.00016513561 -0.00061953574 -0.00062787894 -0.00089058763 -0.00074102794 -0.0015131914 0.00086192368 -0.0014593028 0.0010649469
by 0.00090785942 -0.0010145612 -0.00090263999 0.00013197343 -0.00056637224 -0.00081478956 0.0014226335 0.00091577531 0.0013131811 0.00064025994 -0.0014753519 -0.0010266714 0.0012762406 0.00040562154 0.0013765949 0.0013725683 -0.0012843055 -0.00096539396 -0.0015409252 -0.001101298 0.00033109137 0.00046715676 0.00033468605 0.0011120236 0.00081545248 -0.00067427842 -0.00042482064 0.00020682227 0.0011978693 -0.0015513953 0.0014652783 9.3689458e-05 -0.0014471392 5.8354384e-05 -0.0011562069 -0.0010345322 -0.0016192057 0.0016601488 0.0012060455 0.001269292 0.00026566608 0.0016533249 0.00069149875 -7.1559858e-05 0.00041435304 -0.00043164994 -0.00093046844 0.00032639381 -0.00037417089 -0.00026107614 -0.0016906725 0.0013860513 0.00041400589 0.0013852403 0.00089512655 0.0013883696 -0.00050270587 -0.0011602022 0.0015125526 -0.00013617458 -0.00055555458 -0.00090521423 -0.0012477462 0.00098348269 -0.00057004485 0.0011242639 -0.00010149491 -0.0016203139 -0.0011391407 0.00079752161 -0.0015576521 -0.00022412588 0.0011452682 0.00047837137 0.0010729107 -0.0015743265 -0.00042311227 -0.0012829092 0.0005412618 -0.00074834138 0.00053179858 -0.00074150914 -0.00023098911 0.0011602315 -0.00055560481 -0.00022839713 0.0014006263 0.0014275698 0.0013414925 -0.00076187152 -0.0010035671 0.0016641818 0.00068485731 -0.0010030838 0.00090583501 -0.00082461489 -0.0014149022 0.00013564836 -0.0003668766 -0.0016153925 0.0015533997 0.00090267643 0.0015588483 -0.0006778544 1.0633306e-05 0.00070904294 -0.00095550274 0.0014764861 0.0009706167 0.0012979576 0.00061267114 0.00038372003 0.00034214341 0.00021210551 0.0012701106 -0.0010695928 0.00092324842 0.00063235272 0.00030822083 -0.0014922385 -0.00033611432 -0.00032740238 -0.00055155199 -0.00041742012 -0.0010417423 -0.0011053928 -0.00072878948 -0.00080441625 0.00077783864 0.000266463 -0.00011026473 0.00071735459 0.00083894731 -0.0012108083 0.0016020893 0.0010190532 0.0016928137 -0.00041283137 0.00041979484 0.00072398299 -0.00076798775 0.00089951785 -0.00090167695 0.00020792609 0.00047124486 0.00049740705 0.0016468504 0.0008792156 -0.00087861047 0.00024501467 -0.00044573349 -0.0013020744 -0.00010682252 0.001354796 0.00078696391 0.00039899911 -0.0002806593 -0.0006066222 -0.00076683023 -0.00090797432 0.00029087486 0.00032394446 -0.001108401 0.00051824067 0.0012639513 -0.0011481235 1.3668096e-05 -0.00093648751 0.0014516207 0.00080085261 0.0011239931 0.0010431558 0.0010607681 0.00041409838 -0.0012925479 -0.00063678948 0.0012898628 0.00086774887 -0.0009354052 0.00046429443 -0.00016705641 -0.0012348732 -0.00052587228 0.00081904279 0.00097899279 -0.001378724 -0.00018878905 0.00085766934 -0.00065259467 0.0010414418 0.00055576197 -0.0012134736 1.756631e-05 -0.0016111895 0.00014610584 0.0011329505 -0.00094650482 0.0015592955 0.00058057217 -0.00028081896 4.8299655e-05 0.00031824803 -0.00056904502 -0.0002817052 0.0010624739 -0.0010991915 0.0011024404 -0.0016581874 -0.0011128129 -0.0016807051 0.00054850767 0.0009284502 -0.00065186492 -0.00013929568 0.0012434672 -0.00021189115 -0.00011540746 0.0011928957 -0.0016407487 0.00023052307 0.0008962896 -0.00067557179 -0.001114016 0.00042945618 0.0016306973 9.009213e-05 0.00059955107 0.00015427427 0.00037981989 0.00052623864 0.0010239279 -0.00011310826 -0.0008251681 6.2352396e-05 -0.00078765478 0.0017531496 0.001026312 -0.0013633356 -0.00087864447 -0.0015512084 0.00036664863 -0.00034296353 -0.00086014828 0.0014295999 -0.0011891696 -0.0013804358 -0.0015823813 -0.00035927907 0.00084654638 -0.00013770878 -0.00012499497 -0.00027412569 -6.3432599e-05 -0.0013564603 -0.00098889845 0.0004030088 -0.00039357165 -0.00064421521 -0.0010349634 -4.4477983e-06 -0.0011037049 -0.00018023276 -0.00033412341 -0.00058466295 -0.0005744613 0.001678395 0.0011391786 0.0015745522 -0.00051165884 -0.0015980648 -0.00054316001 -0.00077425322 -0.00029570927 -0.00076284265 0.0011413972 -0.000723637 -0.0015974331 -7.7227924e-05 0.00047511118 -7.0656417e-05 -0.00072918326 0.0011641742 0.00083481823 0.0015606101 -0.001124848 0.0014509116 -0.00057328265 -0.0017198574 0.00041702727 -0.0010621679 0.00033550279 0.00052516314 -0.0011372119 -0.00027590571 0.0014051225 -7.4169038e-05 0.0004922892 -0.00159993 0.0013848474 -0.0010475167
